{"learner":{"attributes":{"scikit_learn":"{\"_estimator_type\": \"regressor\"}"},"feature_names":["YEAR","MONTH","Month Count_Alcohol Accidents","Month Count_Escape accidents","Month Count_Traffic Accidents","CHARACTERISTIC_Injured and killed","CHARACTERISTIC_total","CHARACTERISTIC_with personal injury"],"feature_types":["int","int","int","int","int","int","int","int"],"gradient_booster":{"model":{"gbtree_model_param":{"num_parallel_tree":"1","num_trees":"415"},"iteration_indptr":[0,1,2,3,4,5,6,7,8,9,10,11,12,13,14,15,16,17,18,19,20,21,22,23,24,25,26,27,28,29,30,31,32,33,34,35,36,37,38,39,40,41,42,43,44,45,46,47,48,49,50,51,52,53,54,55,56,57,58,59,60,61,62,63,64,65,66,67,68,69,70,71,72,73,74,75,76,77,78,79,80,81,82,83,84,85,86,87,88,89,90,91,92,93,94,95,96,97,98,99,100,101,102,103,104,105,106,107,108,109,110,111,112,113,114,115,116,117,118,119,120,121,122,123,124,125,126,127,128,129,130,131,132,133,134,135,136,137,138,139,140,141,142,143,144,145,146,147,148,149,150,151,152,153,154,155,156,157,158,159,160,161,162,163,164,165,166,167,168,169,170,171,172,173,174,175,176,177,178,179,180,181,182,183,184,185,186,187,188,189,190,191,192,193,194,195,196,197,198,199,200,201,202,203,204,205,206,207,208,209,210,211,212,213,214,215,216,217,218,219,220,221,222,223,224,225,226,227,228,229,230,231,232,233,234,235,236,237,238,239,240,241,242,243,244,245,246,247,248,249,250,251,252,253,254,255,256,257,258,259,260,261,262,263,264,265,266,267,268,269,270,271,272,273,274,275,276,277,278,279,280,281,282,283,284,285,286,287,288,289,290,291,292,293,294,295,296,297,298,299,300,301,302,303,304,305,306,307,308,309,310,311,312,313,314,315,316,317,318,319,320,321,322,323,324,325,326,327,328,329,330,331,332,333,334,335,336,337,338,339,340,341,342,343,344,345,346,347,348,349,350,351,352,353,354,355,356,357,358,359,360,361,362,363,364,365,366,367,368,369,370,371,372,373,374,375,376,377,378,379,380,381,382,383,384,385,386,387,388,389,390,391,392,393,394,395,396,397,398,399,400,401,402,403,404,405,406,407,408,409,410,411,412,413,414,415],"tree_info":[0,0,0,0,0,0,0,0,0,0,0,0,0,0,0,0,0,0,0,0,0,0,0,0,0,0,0,0,0,0,0,0,0,0,0,0,0,0,0,0,0,0,0,0,0,0,0,0,0,0,0,0,0,0,0,0,0,0,0,0,0,0,0,0,0,0,0,0,0,0,0,0,0,0,0,0,0,0,0,0,0,0,0,0,0,0,0,0,0,0,0,0,0,0,0,0,0,0,0,0,0,0,0,0,0,0,0,0,0,0,0,0,0,0,0,0,0,0,0,0,0,0,0,0,0,0,0,0,0,0,0,0,0,0,0,0,0,0,0,0,0,0,0,0,0,0,0,0,0,0,0,0,0,0,0,0,0,0,0,0,0,0,0,0,0,0,0,0,0,0,0,0,0,0,0,0,0,0,0,0,0,0,0,0,0,0,0,0,0,0,0,0,0,0,0,0,0,0,0,0,0,0,0,0,0,0,0,0,0,0,0,0,0,0,0,0,0,0,0,0,0,0,0,0,0,0,0,0,0,0,0,0,0,0,0,0,0,0,0,0,0,0,0,0,0,0,0,0,0,0,0,0,0,0,0,0,0,0,0,0,0,0,0,0,0,0,0,0,0,0,0,0,0,0,0,0,0,0,0,0,0,0,0,0,0,0,0,0,0,0,0,0,0,0,0,0,0,0,0,0,0,0,0,0,0,0,0,0,0,0,0,0,0,0,0,0,0,0,0,0,0,0,0,0,0,0,0,0,0,0,0,0,0,0,0,0,0,0,0,0,0,0,0,0,0,0,0,0,0,0,0,0,0,0,0,0,0,0,0,0,0,0,0,0,0,0,0,0,0,0,0,0,0,0,0,0,0,0,0,0,0,0,0,0,0,0,0,0,0,0,0,0,0,0,0,0,0,0,0,0,0,0,0,0,0,0,0,0,0,0,0,0,0,0,0],"trees":[{"base_weights":[9.3436165E0,-5.1640027E2,7.002404E2,-4.393449E2,-7.486872E1,1.3608481E3,-7.235183E1,-2.9963504E2,-7.248264E1,2.6718533E3,8.810863E1,-4.4146365E2,-2.5400345E2,2.2084227E2,2.7550464E2,-2.5732489E1,1.1073739E2,-3.2467476E1,-4.619382E1,-2.2194769E1,-3.683616E1,6.207422E0,-5.1337466E0,8.353835E0,1.7570236E1],"categories":[],"categories_nodes":[],"categories_segments":[],"categories_sizes":[],"default_left":[0,0,0,0,0,0,0,0,0,0,0,0,0,0,0,0,0,0,0,0,0,0,0,0,0],"id":0,"left_children":[1,3,5,7,-1,9,-1,11,-1,13,15,17,19,-1,-1,21,23,-1,-1,-1,-1,-1,-1,-1,-1],"loss_changes":[4.0936397E8,1.11264E7,4.5903046E8,1.9047072E7,0E0,5.5539776E8,0E0,1.997692E6,0E0,2.38592E5,4.4078375E5,3.6534E4,8.31036E5,0E0,0E0,6.838711E4,2.3623388E5,0E0,0E0,0E0,0E0,0E0,0E0,0E0,0E0],"parents":[2147483647,0,0,1,1,2,2,3,3,5,5,7,7,9,9,10,10,11,11,12,12,15,15,16,16],"right_children":[2,4,6,8,-1,10,-1,12,-1,14,16,18,20,-1,-1,22,24,-1,-1,-1,-1,-1,-1,-1,-1],"split_conditions":[1E0,1E0,1E0,1E0,-7.486872E1,1E0,-7.235183E1,4E0,-7.248264E1,3E0,3E0,2.003E3,1.1E1,2.2084227E2,2.7550464E2,2.003E3,2.012E3,-3.2467476E1,-4.619382E1,-2.2194769E1,-3.683616E1,6.207422E0,-5.1337466E0,8.353835E0,1.7570236E1],"split_indices":[6,2,2,3,0,3,0,1,0,1,1,0,1,0,0,0,0,0,0,0,0,0,0,0,0],"split_type":[0,0,0,0,0,0,0,0,0,0,0,0,0,0,0,0,0,0,0,0,0,0,0,0,0],"sum_hessian":[1.125E3,6.39E2,4.86E2,4.82E2,1.57E2,3.32E2,1.54E2,3.25E2,1.57E2,1.63E2,1.69E2,7.7E1,2.48E2,2.9E1,1.34E2,2.8E1,1.41E2,1.4E1,6.3E1,1.96E2,5.2E1,6E0,2.2E1,1.01E2,4E1],"tree_param":{"num_deleted":"0","num_feature":"8","num_nodes":"25","size_leaf_vector":"1"}},{"base_weights":[-1.3029941E0,-4.801135E2,6.189769E2,-2.9524893E2,-6.658093E1,-2.763159E2,2.4507158E2,7.918442E0,-6.516805E1,-3.1971151E1,-2.3203463E1],"categories":[],"categories_nodes":[],"categories_segments":[],"categories_sizes":[],"default_left":[0,0,0,0,0,0,0,0,0,0,0],"id":1,"left_children":[1,3,5,7,-1,9,-1,-1,-1,-1,-1],"loss_changes":[3.2996336E8,2.132744E7,7.944095E8,4.2224932E7,0E0,5.5226E5,0E0,0E0,0E0,0E0,0E0],"parents":[2147483647,0,0,1,1,2,2,3,3,5,5],"right_children":[2,4,6,8,-1,10,-1,-1,-1,-1,-1],"split_conditions":[1E0,1E0,1E0,1E0,-6.658093E1,1E0,2.4507158E2,7.918442E0,-6.516805E1,-3.1971151E1,-2.3203463E1],"split_indices":[4,5,6,2,0,5,0,0,0,0,0],"split_type":[0,0,0,0,0,0,0,0,0,0,0],"sum_hessian":[1.109E3,6.26E2,4.83E2,3.15E2,3.11E2,3.25E2,1.58E2,1.54E2,1.61E2,1.61E2,1.64E2],"tree_param":{"num_deleted":"0","num_feature":"8","num_nodes":"11","size_leaf_vector":"1"}},{"base_weights":[3.0816085E0,-4.277684E2,5.854529E2,-5.9922333E1,-2.5225975E2,-2.526264E2,2.1907441E3,-3.6978344E1,-2.1169608E2,7.073802E1,-5.8702065E1,1.7065245E2,2.2707677E2,-1.786229E2,-3.0900928E1,-4.0037694E0,9.3700005E1,-1.2869733E1,-2.2096716E1,1.0577521E1,3.778711E0],"categories":[],"categories_nodes":[],"categories_segments":[],"categories_sizes":[],"default_left":[0,0,0,0,0,0,0,0,0,0,0,0,0,0,0,0,0,0,0,0,0],"id":2,"left_children":[1,3,5,-1,7,9,11,-1,13,15,-1,-1,-1,17,-1,-1,19,-1,-1,-1,-1],"loss_changes":[2.785148E8,1.9047416E7,6.35564E8,0E0,1.432918E6,3.367033E7,2.40224E6,0E0,7.10796E5,4.081887E5,0E0,0E0,0E0,3.520935E5,0E0,0E0,8.5124125E4,0E0,0E0,0E0,0E0],"parents":[2147483647,0,0,1,1,2,2,4,4,5,5,6,6,8,8,9,9,13,13,16,16],"right_children":[2,4,6,-1,8,10,12,-1,14,16,-1,-1,-1,18,-1,-1,20,-1,-1,-1,-1],"split_conditions":[1E0,1E0,1E0,-5.9922333E1,4E0,1E0,3E0,-3.6978344E1,1.1E1,3E0,-5.8702065E1,1.7065245E2,2.2707677E2,1E0,-3.0900928E1,-4.0037694E0,1.1E1,-1.2869733E1,-2.2096716E1,1.0577521E1,3.778711E0],"split_indices":[6,4,4,0,1,2,1,0,1,1,0,0,0,7,0,0,1,0,0,0,0],"split_type":[0,0,0,0,0,0,0,0,0,0,0,0,0,0,0,0,0,0,0,0,0],"sum_hessian":[1.108E3,6.37E2,4.71E2,3.21E2,3.16E2,3.1E2,1.61E2,7.9E1,2.37E2,1.58E2,1.52E2,2.6E1,1.35E2,1.79E2,5.8E1,2.7E1,1.31E2,8.4E1,9.5E1,1.07E2,2.4E1],"tree_param":{"num_deleted":"0","num_feature":"8","num_nodes":"21","size_leaf_vector":"1"}},{"base_weights":[2.0742441E1,-3.8878836E2,5.478278E2,-2.3153505E2,-5.4097454E1,9.406224E2,-2.578673E2,5.8845173E1,-5.2783875E1,1.9941644E3,-1.8332487E2,-2.7156213E2,-2.1434599E1,3.2431553E1,1.0519295E2,1.8403783E2,2.3076353E2,-1.0204754E1,-1.9942648E2,-2.332751E1,-3.147465E1,8.771718E0,-2.2422864E0,6.5356765E0,1.1117599E1,-2.2523895E1,-1.4092254E1],"categories":[],"categories_nodes":[],"categories_segments":[],"categories_sizes":[],"default_left":[0,0,0,0,0,0,0,0,0,0,0,0,0,0,0,0,0,0,0,0,0,0,0,0,0,0,0],"id":3,"left_children":[1,3,5,7,-1,9,11,13,-1,15,17,19,-1,21,23,-1,-1,-1,25,-1,-1,-1,-1,-1,-1,-1,-1],"loss_changes":[2.4585904E8,1.5215024E7,1.5784595E8,2.7305976E7,0E0,3.9704768E8,3.9539E4,1.9368669E5,0E0,4.092928E6,1.92967E5,1.26639E5,0E0,3.1736362E5,6.5576875E3,0E0,0E0,0E0,1.721265E5,0E0,0E0,0E0,0E0,0E0,0E0,0E0,0E0],"parents":[2147483647,0,0,1,1,2,2,3,3,5,5,6,6,7,7,9,9,10,10,11,11,13,13,14,14,18,18],"right_children":[2,4,6,8,-1,10,12,14,-1,16,18,20,-1,22,24,-1,-1,-1,26,-1,-1,-1,-1,-1,-1,-1,-1],"split_conditions":[1E0,1E0,1E0,1E0,-5.4097454E1,1E0,2.012E3,2.011E3,-5.2783875E1,2.012E3,2.003E3,2.007E3,-2.1434599E1,2.006E3,2.012E3,1.8403783E2,2.3076353E2,-1.0204754E1,2.012E3,-2.332751E1,-3.147465E1,8.771718E0,-2.2422864E0,6.5356765E0,1.1117599E1,-2.2523895E1,-1.4092254E1],"split_indices":[4,2,7,5,0,5,0,0,0,0,0,0,0,0,0,0,0,0,0,0,0,0,0,0,0,0,0],"split_type":[0,0,0,0,0,0,0,0,0,0,0,0,0,0,0,0,0,0,0,0,0,0,0,0,0,0,0],"sum_hessian":[1.137E3,6.4E2,4.97E2,3.16E2,3.24E2,3.34E2,1.63E2,1.6E2,1.56E2,1.72E2,1.62E2,1.2E2,4.3E1,1.03E2,5.7E1,1.2E2,5.2E1,2.8E1,1.34E2,6.7E1,5.3E1,5.1E1,5.2E1,9E0,4.8E1,9.1E1,4.3E1],"tree_param":{"num_deleted":"0","num_feature":"8","num_nodes":"27","size_leaf_vector":"1"}},{"base_weights":[1.2621824E1,-3.4527588E2,5.0215076E2,-1.9640984E2,-4.8680233E1,8.6171295E2,-2.3402187E2,6.073451E1,-4.7594635E1,1.7947506E3,-1.6906993E2,-3.1621878E2,-1.8740567E2,-3.940273E1,8.04691E1,1.4314935E2,1.8576262E2,-2.725066E2,-1.125578E2,-3.5449337E1,-2.666507E1,-1.2076116E2,-2.3588148E2,-5.982482E0,-2.4733522E0,9.115423E0,3.6796055E0,-3.1485538E1,-2.2345036E1,-7.778164E0,-2.194414E1,-1.5583068E1,-4.745826E0,-2.0104687E1,-2.837451E1],"categories":[],"categories_nodes":[],"categories_segments":[],"categories_sizes":[],"default_left":[0,0,0,0,0,0,0,0,0,0,0,0,0,0,0,0,0,0,0,0,0,0,0,0,0,0,0,0,0,0,0,0,0,0,0],"id":4,"left_children":[1,3,5,7,-1,9,11,13,-1,15,17,19,21,23,25,-1,-1,27,29,-1,-1,31,33,-1,-1,-1,-1,-1,-1,-1,-1,-1,-1,-1,-1],"loss_changes":[1.9622362E8,1.3535696E7,1.254047E8,2.2815258E7,0E0,3.0614285E8,5.38485E5,3.312145E5,0E0,1.155136E6,8.57832E5,9.8205E3,3.0104075E5,6.908449E3,6.15105E4,0E0,0E0,3.975175E4,3.5463162E5,0E0,0E0,1.0828594E5,3.965775E4,0E0,0E0,0E0,0E0,0E0,0E0,0E0,0E0,0E0,0E0,0E0,0E0],"parents":[2147483647,0,0,1,1,2,2,3,3,5,5,6,6,7,7,9,9,10,10,11,11,12,12,13,13,14,14,17,17,18,18,21,21,22,22],"right_children":[2,4,6,8,-1,10,12,14,-1,16,18,20,22,24,26,-1,-1,28,30,-1,-1,32,34,-1,-1,-1,-1,-1,-1,-1,-1,-1,-1,-1,-1],"split_conditions":[1E0,1E0,1E0,1E0,-4.8680233E1,1E0,5E0,3E0,-4.7594635E1,3E0,5E0,3E0,8E0,2E0,1.1E1,1.4314935E2,1.8576262E2,3E0,1.1E1,-3.5449337E1,-2.666507E1,7E0,1.1E1,-5.982482E0,-2.4733522E0,9.115423E0,3.6796055E0,-3.1485538E1,-2.2345036E1,-7.778164E0,-2.194414E1,-1.5583068E1,-4.745826E0,-2.0104687E1,-2.837451E1],"split_indices":[4,2,7,5,0,5,1,1,0,1,1,1,1,1,1,0,0,1,1,0,0,1,1,0,0,0,0,0,0,0,0,0,0,0,0],"split_type":[0,0,0,0,0,0,0,0,0,0,0,0,0,0,0,0,0,0,0,0,0,0,0,0,0,0,0,0,0,0,0,0,0,0,0],"sum_hessian":[1.118E3,6.46E2,4.72E2,3.16E2,3.3E2,3.17E2,1.55E2,1.65E2,1.51E2,1.66E2,1.51E2,5.4E1,1.01E2,2.7E1,1.38E2,2.8E1,1.38E2,5.2E1,9.9E1,2.7E1,2.7E1,4.4E1,5.7E1,1E1,1.7E1,1.1E2,2.8E1,2.5E1,2.7E1,7.6E1,2.3E1,2.9E1,1.5E1,3.6E1,2.1E1],"tree_param":{"num_deleted":"0","num_feature":"8","num_nodes":"35","size_leaf_vector":"1"}},{"base_weights":[-2.622569E0,-3.116342E2,4.27284E2,-4.3930542E1,-1.845571E2,-1.7775655E2,1.5867992E3,-2.8401675E2,-1.4852078E2,5.9388874E1,-4.2606693E1,1.457466E3,1.8777463E2,-2.0604637E1,-2.9848173E1,-1.25618515E2,-2.2660294E2,3.5208267E1,1.1780508E2,1.8079982E2,1.3719296E3,-7.6050553E0,-1.517659E1,-1.7820623E1,-2.6099333E1,1.4245552E1,1.1381177E0,-1.3626213E0,1.4114621E1,9.346499E1,1.4052725E2],"categories":[],"categories_nodes":[],"categories_segments":[],"categories_sizes":[],"default_left":[0,0,0,0,0,0,0,0,0,0,0,0,0,0,0,0,0,0,0,0,0,0,0,0,0,0,0,0,0,0,0],"id":5,"left_children":[1,3,5,-1,7,9,11,13,15,17,-1,19,-1,-1,-1,21,23,25,27,-1,29,-1,-1,-1,-1,-1,-1,-1,-1,-1,-1],"loss_changes":[1.5184342E8,1.0707948E7,3.356247E8,0E0,1.158512E6,1.857429E7,3.4344E6,3.7749E4,4.150225E5,2.2468369E5,0E0,1.057584E6,0E0,0E0,0E0,2.3989625E5,4.50305E4,2.948039E5,1.4610781E5,0E0,1.3E5,0E0,0E0,0E0,0E0,0E0,0E0,0E0,0E0,0E0,0E0],"parents":[2147483647,0,0,1,1,2,2,4,4,5,5,6,6,7,7,8,8,9,9,11,11,15,15,16,16,17,17,18,18,20,20],"right_children":[2,4,6,-1,8,10,12,14,16,18,-1,20,-1,-1,-1,22,24,26,28,-1,30,-1,-1,-1,-1,-1,-1,-1,-1,-1,-1],"split_conditions":[1E0,1E0,1E0,-4.3930542E1,4E0,1E0,2.012E3,2.003E3,1.1E1,2.012E3,-4.2606693E1,2.002E3,1.8777463E2,-2.0604637E1,-2.9848173E1,2.006E3,2.007E3,2.002E3,3E0,1.8079982E2,2E0,-7.6050553E0,-1.517659E1,-1.7820623E1,-2.6099333E1,1.4245552E1,1.1381177E0,-1.3626213E0,1.4114621E1,9.346499E1,1.4052725E2],"split_indices":[6,4,4,0,1,2,0,0,1,0,0,0,0,0,0,0,0,0,1,0,1,0,0,0,0,0,0,0,0,0,0],"split_type":[0,0,0,0,0,0,0,0,0,0,0,0,0,0,0,0,0,0,0,0,0,0,0,0,0,0,0,0,0,0,0],"sum_hessian":[1.141E3,6.64E2,4.77E2,3.3E2,3.34E2,3.14E2,1.63E2,8.7E1,2.47E2,1.61E2,1.53E2,1.17E2,4.6E1,1.6E1,7.1E1,1.93E2,5.4E1,1.15E2,4.6E1,1.9E1,9.8E1,6.8E1,1.25E2,2.5E1,2.9E1,2E1,9.5E1,7E0,3.9E1,9E0,8.9E1],"tree_param":{"num_deleted":"0","num_feature":"8","num_nodes":"31","size_leaf_vector":"1"}},{"base_weights":[-5.7279797E0,-2.827219E2,3.684586E2,-3.9426144E1,-1.6532748E2,-1.5834744E2,1.4709904E3,-2.5659344E2,-1.3210689E2,5.293577E1,-3.8486816E1,1.1377435E2,1.5328795E2,-2.747057E1,-2.006214E1,-1.1063449E2,-2.0471975E1,-2.2708938E0,6.758198E1,-7.1736336E0,-1.4790729E1,7.203218E0,1.8223695E0],"categories":[],"categories_nodes":[],"categories_segments":[],"categories_sizes":[],"default_left":[0,0,0,0,0,0,0,0,0,0,0,0,0,0,0,0,0,0,0,0,0,0,0],"id":6,"left_children":[1,3,5,-1,7,9,11,13,15,17,-1,-1,-1,-1,-1,19,-1,-1,21,-1,-1,-1,-1],"loss_changes":[1.1598197E8,8.354336E6,2.7670342E8,0E0,9.21154E5,1.547916E7,1.432128E6,2.9032E4,3.4063875E5,1.8766334E5,0E0,0E0,0E0,0E0,0E0,2.53261E5,0E0,0E0,2.96585E4,0E0,0E0,0E0,0E0],"parents":[2147483647,0,0,1,1,2,2,4,4,5,5,6,6,7,7,8,8,9,9,15,15,18,18],"right_children":[2,4,6,-1,8,10,12,14,16,18,-1,-1,-1,-1,-1,20,-1,-1,22,-1,-1,-1,-1],"split_conditions":[1E0,1E0,1E0,-3.9426144E1,4E0,1E0,3E0,3E0,1.1E1,3E0,-3.8486816E1,1.1377435E2,1.5328795E2,-2.747057E1,-2.006214E1,1E0,-2.0471975E1,-2.2708938E0,1.2E1,-7.1736336E0,-1.4790729E1,7.203218E0,1.8223695E0],"split_indices":[6,4,4,0,1,2,1,1,1,1,0,0,0,0,0,7,0,0,1,0,0,0,0],"split_type":[0,0,0,0,0,0,0,0,0,0,0,0,0,0,0,0,0,0,0,0,0,0,0],"sum_hessian":[1.117E3,6.42E2,4.75E2,3.28E2,3.14E2,3.22E2,1.53E2,8.2E1,2.32E2,1.67E2,1.55E2,2.7E1,1.26E2,5.9E1,2.3E1,1.81E2,5.1E1,2.7E1,1.4E2,9E1,9.1E1,1.28E2,1.2E1],"tree_param":{"num_deleted":"0","num_feature":"8","num_nodes":"23","size_leaf_vector":"1"}},{"base_weights":[-3.712294E0,-2.5059863E2,3.3028784E2,-3.5519585E1,-1.455522E2,-1.3927907E2,1.3127327E3,-1.7989784E2,-1.1073789E2,-3.4608505E1,4.4423798E1,1.1864497E3,1.6242455E2,-1.1562764E1,-1.9246455E2,-3.76669E1,-1.2681598E2,2.3230547E1,8.947059E0,1.4985919E2,1.1082466E2,-2.1650555E1,-1.4774558E1,-2.4049861E0,-5.7223053E0,-1.4876413E1,-8.15942E0,7.890789E0,-2.4238443E0],"categories":[],"categories_nodes":[],"categories_segments":[],"categories_sizes":[],"default_left":[0,0,0,0,0,0,0,0,0,0,0,0,0,0,0,0,0,0,0,0,0,0,0,0,0,0,0,0,0],"id":7,"left_children":[1,3,5,-1,7,9,11,13,15,-1,17,19,-1,-1,21,23,25,27,-1,-1,-1,-1,-1,-1,-1,-1,-1,-1,-1],"loss_changes":[9.29328E7,7.06824E6,2.2115683E8,0E0,3.686875E5,1.2362402E7,4.170432E6,1.085875E5,1.8789712E5,0E0,1.6308253E5,1.122E6,0E0,0E0,1.12074E5,6.879E3,1.208615E5,3.164233E5,0E0,0E0,0E0,0E0,0E0,0E0,0E0,0E0,0E0,0E0,0E0],"parents":[2147483647,0,0,1,1,2,2,4,4,5,5,6,6,7,7,8,8,10,10,11,11,14,14,15,15,16,16,17,17],"right_children":[2,4,6,-1,8,10,12,14,16,-1,18,20,-1,-1,22,24,26,28,-1,-1,-1,-1,-1,-1,-1,-1,-1,-1,-1],"split_conditions":[1E0,1E0,1E0,-3.5519585E1,1E0,1E0,2.012E3,2.003E3,2.003E3,-3.4608505E1,2.012E3,2.002E3,1.6242455E2,-1.1562764E1,2.012E3,2.002E3,2.012E3,2.006E3,8.947059E0,1.4985919E2,1.1082466E2,-2.1650555E1,-1.4774558E1,-2.4049861E0,-5.7223053E0,-1.4876413E1,-8.15942E0,7.890789E0,-2.4238443E0],"split_indices":[6,4,4,0,5,3,0,0,0,0,0,0,0,0,0,0,0,0,0,0,0,0,0,0,0,0,0,0,0],"split_type":[0,0,0,0,0,0,0,0,0,0,0,0,0,0,0,0,0,0,0,0,0,0,0,0,0,0,0,0,0],"sum_hessian":[1.125E3,6.47E2,4.78E2,3.23E2,3.24E2,3.24E2,1.54E2,1.61E2,1.63E2,1.52E2,1.72E2,1.13E2,4.1E1,2.8E1,1.33E2,3E1,1.33E2,1.18E2,5.4E1,1.9E1,9.4E1,8.4E1,4.9E1,1.9E1,1.1E1,8.8E1,4.5E1,5.4E1,6.4E1],"tree_param":{"num_deleted":"0","num_feature":"8","num_nodes":"29","size_leaf_vector":"1"}},{"base_weights":[1.2173907E0,-2.2810037E2,3.0888287E2,-3.2051586E1,-1.3583656E2,-1.3536346E2,1.1817576E3,-2.0704013E2,-1.0171435E2,-3.1118973E1,4.35258E1,1.0614957E3,1.3904406E3,-2.3775444E1,-1.7175362E2,-4.2129185E1,-1.3656221E2,-3.006325E1,5.8805855E1,1.2715505E2,9.5908455E1,8.905289E1,1.4928517E2,-1.8763632E1,-1.3132873E1,4.5452313E0,-6.3722563E0,-9.245629E0,-1.626687E1,2.9152029E0,-4.420362E0,3.9448552E0,1.0234145E1],"categories":[],"categories_nodes":[],"categories_segments":[],"categories_sizes":[],"default_left":[0,0,0,0,0,0,0,0,0,0,0,0,0,0,0,0,0,0,0,0,0,0,0,0,0,0,0,0,0,0,0,0,0],"id":8,"left_children":[1,3,5,-1,7,9,11,13,15,-1,17,19,21,-1,23,25,27,29,31,-1,-1,-1,-1,-1,-1,-1,-1,-1,-1,-1,-1,-1,-1],"loss_changes":[7.9301656E7,5.447598E6,1.8629022E8,0E0,7.66139E5,1.004719E7,2.589696E6,7.188E4,4.5313475E5,0E0,1.8055466E5,1.082256E6,1.537576E6,0E0,8.744875E3,1.5986431E5,1.4501175E5,2.4733744E4,1.0720331E5,0E0,0E0,0E0,0E0,0E0,0E0,0E0,0E0,0E0,0E0,0E0,0E0,0E0,0E0],"parents":[2147483647,0,0,1,1,2,2,4,4,5,5,6,6,7,7,8,8,10,10,11,11,12,12,14,14,15,15,16,16,17,17,18,18],"right_children":[2,4,6,-1,8,10,12,14,16,-1,18,20,22,-1,24,26,28,30,32,-1,-1,-1,-1,-1,-1,-1,-1,-1,-1,-1,-1,-1,-1],"split_conditions":[1E0,1E0,1E0,-3.2051586E1,5E0,1E0,2.011E3,3E0,8E0,-3.1118973E1,3E0,2.003E3,3E0,-2.3775444E1,2.011E3,2.003E3,2.006E3,2.003E3,2.012E3,1.2715505E2,9.5908455E1,8.905289E1,1.4928517E2,-1.8763632E1,-1.3132873E1,4.5452313E0,-6.3722563E0,-9.245629E0,-1.626687E1,2.9152029E0,-4.420362E0,3.9448552E0,1.0234145E1],"split_indices":[6,4,4,0,1,3,0,1,1,0,1,0,1,0,0,0,0,0,0,0,0,0,0,0,0,0,0,0,0,0,0,0,0],"split_type":[0,0,0,0,0,0,0,0,0,0,0,0,0,0,0,0,0,0,0,0,0,0,0,0,0,0,0,0,0,0,0,0,0],"sum_hessian":[1.122E3,6.43E2,4.79E2,3.2E2,3.23E2,3.18E2,1.61E2,1.03E2,2.2E2,1.6E2,1.58E2,1.06E2,5.5E1,5.2E1,5.1E1,8.2E1,1.38E2,2.7E1,1.31E2,3.1E1,7.5E1,1.1E1,4.4E1,3.4E1,1.7E1,1.6E1,6.6E1,5.3E1,8.5E1,5E0,2.2E1,9.2E1,3.9E1],"tree_param":{"num_deleted":"0","num_feature":"8","num_nodes":"33","size_leaf_vector":"1"}},{"base_weights":[1.2189796E1,-2.0444025E2,2.9018073E2,-1.7401222E2,-2.955832E1,5.498909E2,-2.8036234E1,-2.2103564E2,-1.4910938E2,5.0010797E2,6.7220557E2,-2.395632E1,-1.9977926E1,-1.11046234E2,-1.72442E2,6.8762616E2,4.3451062E2,4.673097E2,7.113734E1,-5.4836926E0,-1.2737983E1,-1.4427787E1,-1.8790348E1,4.481568E1,7.204544E1,2.4254423E1,4.490641E1,1.5678153E1,5.1896328E1],"categories":[],"categories_nodes":[],"categories_segments":[],"categories_sizes":[],"default_left":[0,0,0,0,0,0,0,0,0,0,0,0,0,0,0,0,0,0,0,0,0,0,0,0,0,0,0,0,0],"id":9,"left_children":[1,3,5,7,-1,9,-1,11,13,15,17,-1,-1,19,21,23,25,27,-1,-1,-1,-1,-1,-1,-1,-1,-1,-1,-1],"loss_changes":[6.696506E7,1.681878E6,7.231581E7,5.1859E5,0E0,1.703696E6,0E0,1.5547E4,2.570535E5,2.677988E6,4.21952E5,0E0,0E0,1.04104875E5,5.6063E4,1.56666E5,3.99552E5,2.0735375E5,0E0,0E0,0E0,0E0,0E0,0E0,0E0,0E0,0E0,0E0,0E0],"parents":[2147483647,0,0,1,1,2,2,3,3,5,5,7,7,8,8,9,9,10,10,13,13,14,14,15,15,16,16,17,17],"right_children":[2,4,6,8,-1,10,-1,12,14,16,18,-1,-1,20,22,24,26,28,-1,-1,-1,-1,-1,-1,-1,-1,-1,-1,-1],"split_conditions":[1E0,1E0,1E0,5E0,-2.955832E1,2.012E3,-2.8036234E1,3E0,8E0,2.003E3,3E0,-2.395632E1,-1.9977926E1,2.004E3,2.006E3,3E0,2E0,2.013E3,7.113734E1,-5.4836926E0,-1.2737983E1,-1.4427787E1,-1.8790348E1,4.481568E1,7.204544E1,2.4254423E1,4.490641E1,1.5678153E1,5.1896328E1],"split_indices":[6,2,2,1,0,0,0,1,1,0,1,0,0,0,0,1,1,0,0,0,0,0,0,0,0,0,0,0,0],"split_type":[0,0,0,0,0,0,0,0,0,0,0,0,0,0,0,0,0,0,0,0,0,0,0,0,0,0,0,0,0],"sum_hessian":[1.11E3,6.24E2,4.86E2,4.7E2,1.54E2,3.34E2,1.52E2,1.6E2,3.1E2,2.41E2,9.3E1,8E1,8E1,1.2E2,1.9E2,6E1,1.81E2,1.7E1,7.6E1,2.8E1,9.2E1,7.1E1,1.19E2,9E0,5.1E1,1.4E1,1.67E2,3E0,1.4E1],"tree_param":{"num_deleted":"0","num_feature":"8","num_nodes":"29","size_leaf_vector":"1"}},{"base_weights":[5.686553E0,-1.9912276E2,2.7327548E2,-1.328144E2,-2.6439117E1,-1.0272824E2,1.0189929E3,-1.0939468E2,-1.4690575E2,-1.6459319E2,-7.103377E1,9.2208704E2,1.2601227E3,-1.2381918E2,-8.068205E1,-1.5046504E2,-8.0087685E1,-1.9107916E2,-1.3300273E2,-1.16205435E1,-1.0589728E2,1.1742997E2,8.5672577E2,7.336346E1,1.30881E2,-1.3059772E1,-8.253486E0,-4.175228E0,-1.17713995E1,-1.6470322E1,-1.3818392E1,-1.2497272E1,7.7459043E-1,-1.3625897E1,-2.012262E1,-1.5839038E1,-7.9235854E0,-4.805471E0,5.191936E0,-8.084208E0,-1.4607081E1,7.082625E1,9.170626E1],"categories":[],"categories_nodes":[],"categories_segments":[],"categories_sizes":[],"default_left":[0,0,0,0,0,0,0,0,0,0,0,0,0,0,0,0,0,0,0,0,0,0,0,0,0,0,0,0,0,0,0,0,0,0,0,0,0,0,0,0,0,0,0],"id":10,"left_children":[1,3,5,7,-1,9,11,13,15,17,19,21,23,25,27,29,31,33,35,37,39,-1,41,-1,-1,-1,-1,-1,-1,-1,-1,-1,-1,-1,-1,-1,-1,-1,-1,-1,-1,-1,-1],"loss_changes":[6.143569E7,2.713066E6,1.3637544E8,8.85445E4,0E0,6.2359975E5,2.646864E6,4.0952375E4,3.43255E4,6.578675E4,4.4618175E5,9.72144E5,1.67672E5,1.1608875E4,5.851753E4,9.415E3,4.8276984E4,4.28825E3,5.9795625E4,1.9001184E5,1.25083E5,0E0,2.37304E5,0E0,0E0,0E0,0E0,0E0,0E0,0E0,0E0,0E0,0E0,0E0,0E0,0E0,0E0,0E0,0E0,0E0,0E0,0E0,0E0],"parents":[2147483647,0,0,1,1,2,2,3,3,5,5,6,6,7,7,8,8,9,9,10,10,11,11,12,12,13,13,14,14,15,15,16,16,17,17,18,18,19,19,20,20,22,22],"right_children":[2,4,6,8,-1,10,12,14,16,18,20,22,24,26,28,30,32,34,36,38,40,-1,42,-1,-1,-1,-1,-1,-1,-1,-1,-1,-1,-1,-1,-1,-1,-1,-1,-1,-1,-1,-1],"split_conditions":[1E0,1E0,1E0,2.006E3,-2.6439117E1,5E0,2.012E3,9E0,2.016E3,3E0,8E0,2.002E3,3E0,2.005E3,1.1E1,2.01E3,6E0,2.003E3,2.011E3,7E0,1.1E1,1.1742997E2,5E0,7.336346E1,1.30881E2,-1.3059772E1,-8.253486E0,-4.175228E0,-1.17713995E1,-1.6470322E1,-1.3818392E1,-1.2497272E1,7.7459043E-1,-1.3625897E1,-2.012262E1,-1.5839038E1,-7.9235854E0,-4.805471E0,5.191936E0,-8.084208E0,-1.4607081E1,7.082625E1,9.170626E1],"split_indices":[4,5,6,0,0,1,0,1,0,1,1,0,1,0,1,0,1,0,0,1,1,0,1,0,0,0,0,0,0,0,0,0,0,0,0,0,0,0,0,0,0,0,0],"split_type":[0,0,0,0,0,0,0,0,0,0,0,0,0,0,0,0,0,0,0,0,0,0,0,0,0,0,0,0,0,0,0,0,0,0,0,0,0,0,0,0,0,0,0],"sum_hessian":[1.119E3,6.34E2,4.85E2,3.16E2,3.18E2,3.23E2,1.62E2,1.22E2,1.94E2,1.08E2,2.15E2,1.19E2,4.3E1,7.9E1,4.3E1,1.83E2,1.1E1,5.6E1,5.2E1,8E1,1.35E2,2.1E1,9.8E1,5E0,3.8E1,6.6E1,1.3E1,2.2E1,2.1E1,7.9E1,1.04E2,7E0,4E0,1.1E1,4.5E1,3.4E1,1.8E1,5.1E1,2.9E1,8.5E1,5E1,3.2E1,6.6E1],"tree_param":{"num_deleted":"0","num_feature":"8","num_nodes":"43","size_leaf_vector":"1"}},{"base_weights":[3.4847197E-1,-1.690063E2,2.2888756E2,-1.4450879E2,-2.405483E1,4.6845422E2,-2.412515E1,-9.463963E1,-2.3406979E1,9.07534E2,-2.38537E0,-1.424092E2,-6.875908E1,7.077313E1,9.71038E1,-1.5940449E1,2.5856901E1,-1.660343E1,-1.1274909E1,-4.800361E0,-1.3301086E1,-5.5224276E-1,-8.251899E0,5.7706046E0,-1.7301372E0],"categories":[],"categories_nodes":[],"categories_segments":[],"categories_sizes":[],"default_left":[0,0,0,0,0,0,0,0,0,0,0,0,0,0,0,0,0,0,0,0,0,0,0,0,0],"id":11,"left_children":[1,3,5,7,-1,9,-1,11,-1,13,15,17,19,-1,-1,21,23,-1,-1,-1,-1,-1,-1,-1,-1],"loss_changes":[4.3193852E7,1.088656E6,5.3612092E7,2.121687E6,0E0,6.512405E7,0E0,3.7346175E5,0E0,1.380944E6,5.8984574E4,5.6958E4,2.6433088E5,0E0,0E0,7.168042E4,6.972609E4,0E0,0E0,0E0,0E0,0E0,0E0,0E0,0E0],"parents":[2147483647,0,0,1,1,2,2,3,3,5,5,7,7,9,9,10,10,11,11,12,12,15,15,16,16],"right_children":[2,4,6,8,-1,10,-1,12,-1,14,16,18,20,-1,-1,22,24,-1,-1,-1,-1,-1,-1,-1,-1],"split_conditions":[1E0,1E0,1E0,1E0,-2.405483E1,1E0,-2.412515E1,5E0,-2.3406979E1,4E0,9E0,3E0,1.1E1,7.077313E1,9.71038E1,8E0,1.1E1,-1.660343E1,-1.1274909E1,-4.800361E0,-1.3301086E1,-5.5224276E-1,-8.251899E0,5.7706046E0,-1.7301372E0],"split_indices":[6,2,2,3,0,3,0,1,0,1,1,1,1,0,0,1,1,0,0,0,0,0,0,0,0],"split_type":[0,0,0,0,0,0,0,0,0,0,0,0,0,0,0,0,0,0,0,0,0,0,0,0,0],"sum_hessian":[1.114E3,6.4E2,4.74E2,4.79E2,1.61E2,3.14E2,1.6E2,3.09E2,1.7E2,1.62E2,1.52E2,1.07E2,2.02E2,4.2E1,1.2E2,1.03E2,4.9E1,5.7E1,5E1,1.54E2,4.8E1,9E1,1.3E1,2.8E1,2.1E1],"tree_param":{"num_deleted":"0","num_feature":"8","num_nodes":"25","size_leaf_vector":"1"}},{"base_weights":[-1.7747551E0,-1.6251949E2,2.0151408E2,-2.1687439E1,-1.1019825E2,-8.460714E1,8.123208E2,-9.693195E0,-2.1127089E1,-1.3305098E2,-6.096771E1,7.047351E2,1.0121654E3,2.1390224E1,-2.677077E1,-8.613394E1,-1.4583678E2,-1.6686024E1,-8.6990326E1,9.759057E1,6.262588E2,6.475967E1,1.0720182E2,1.03425324E-1,6.0014853E0,-7.929368E0,1.0935342E0,-1.1394584E1,-5.4156184E0,-1.705081E1,-1.0752001E1,-4.7929134E0,4.3232083E0,-4.872043E0,-1.0561777E1,5.5727333E1,7.341564E1],"categories":[],"categories_nodes":[],"categories_segments":[],"categories_sizes":[],"default_left":[0,0,0,0,0,0,0,0,0,0,0,0,0,0,0,0,0,0,0,0,0,0,0,0,0,0,0,0,0,0,0,0,0,0,0,0,0],"id":12,"left_children":[1,3,5,-1,7,9,11,13,-1,15,17,19,21,23,25,27,29,31,33,-1,35,-1,-1,-1,-1,-1,-1,-1,-1,-1,-1,-1,-1,-1,-1,-1,-1],"loss_changes":[3.663167E7,1.75639E6,8.657728E7,0E0,3.2587692E6,3.7896075E5,2.68376E6,8.6566984E4,0E0,5.34245E4,2.624308E5,1.64456E6,4.62248E5,4.5539957E4,2.0881275E5,1.6952562E4,6.2019625E4,1.6306647E5,9.750775E4,0E0,2.2356E5,0E0,0E0,0E0,0E0,0E0,0E0,0E0,0E0,0E0,0E0,0E0,0E0,0E0,0E0,0E0,0E0],"parents":[2147483647,0,0,1,1,2,2,4,4,5,5,6,6,7,7,9,9,10,10,11,11,12,12,13,13,14,14,15,15,16,16,17,17,18,18,20,20],"right_children":[2,4,6,-1,8,10,12,14,-1,16,18,20,22,24,26,28,30,32,34,-1,36,-1,-1,-1,-1,-1,-1,-1,-1,-1,-1,-1,-1,-1,-1,-1,-1],"split_conditions":[1E0,1E0,1E0,-2.1687439E1,1E0,5E0,2.011E3,2.006E3,-2.1127089E1,2.004E3,8E0,2.002E3,3E0,9E0,2.01E3,1E0,2.011E3,7E0,2.006E3,9.759057E1,9E0,6.475967E1,1.0720182E2,1.03425324E-1,6.0014853E0,-7.929368E0,1.0935342E0,-1.1394584E1,-5.4156184E0,-1.705081E1,-1.0752001E1,-4.7929134E0,4.3232083E0,-4.872043E0,-1.0561777E1,5.5727333E1,7.341564E1],"split_indices":[4,3,6,0,5,1,0,0,0,0,1,0,1,1,0,5,0,1,0,0,1,0,0,0,0,0,0,0,0,0,0,0,0,0,0,0,0],"split_type":[0,0,0,0,0,0,0,0,0,0,0,0,0,0,0,0,0,0,0,0,0,0,0,0,0,0,0,0,0,0,0,0,0,0,0,0,0],"sum_hessian":[1.119E3,6.25E2,4.94E2,3.05E2,3.2E2,3.37E2,1.57E2,1.61E2,1.59E2,1.09E2,2.28E2,1.05E2,5.2E1,5.7E1,1.04E2,2.5E1,8.4E1,8.5E1,1.43E2,2.1E1,8.4E1,9E0,4.3E1,3.8E1,1.9E1,4.3E1,6.1E1,1.2E1,1.3E1,4.9E1,3.5E1,5.6E1,2.9E1,4.8E1,9.5E1,5.5E1,2.9E1],"tree_param":{"num_deleted":"0","num_feature":"8","num_nodes":"37","size_leaf_vector":"1"}},{"base_weights":[1.9416414E0,-1.4912236E2,2.0408759E2,-1.0009794E2,-1.9649137E1,-7.478424E1,7.452828E1,-7.763007E-1,-1.9066412E1,-1.0042949E1,-4.9310584E0],"categories":[],"categories_nodes":[],"categories_segments":[],"categories_sizes":[],"default_left":[0,0,0,0,0,0,0,0,0,0,0],"id":13,"left_children":[1,3,5,7,-1,9,-1,-1,-1,-1,-1],"loss_changes":[3.4415068E7,1.478177E6,7.280116E7,2.6661328E6,0E0,2.0344338E5,0E0,0E0,0E0,0E0,0E0],"parents":[2147483647,0,0,1,1,2,2,3,3,5,5],"right_children":[2,4,6,8,-1,10,-1,-1,-1,-1,-1],"split_conditions":[1E0,1E0,1E0,1E0,-1.9649137E1,1E0,7.452828E1,-7.763007E-1,-1.9066412E1,-1.0042949E1,-4.9310584E0],"split_indices":[4,2,6,5,0,5,0,0,0,0,0],"split_type":[0,0,0,0,0,0,0,0,0,0,0],"sum_hessian":[1.125E3,6.44E2,4.81E2,3.18E2,3.26E2,3.18E2,1.63E2,1.58E2,1.6E2,1.57E2,1.61E2],"tree_param":{"num_deleted":"0","num_feature":"8","num_nodes":"11","size_leaf_vector":"1"}},{"base_weights":[-7.8214073E0,-1.3409183E2,1.6135483E2,-8.98453E1,-1.7655334E1,-6.927729E1,6.551525E2,-9.49076E0,-1.7169386E1,-1.1678347E2,-4.3972267E1,5.680038E2,8.678004E2,-2.6386438E1,1.959321E1,-7.030286E1,-1.3144006E2,-6.701988E-1,-6.949609E1,3.4189413E2,6.0852637E2,5.479369E1,9.058905E1,1.5114368E0,-7.2525134E0,-4.5837917E0,3.388197E0,-9.393435E0,-4.198451E0,-1.5480365E1,-1.0187005E1,-3.142389E0,5.449746E0,-8.2459345E0,-3.1916726E0,3.9122883E1,1.2551124E1,7.6597404E1,5.7533455E1],"categories":[],"categories_nodes":[],"categories_segments":[],"categories_sizes":[],"default_left":[0,0,0,0,0,0,0,0,0,0,0,0,0,0,0,0,0,0,0,0,0,0,0,0,0,0,0,0,0,0,0,0,0,0,0,0,0,0,0],"id":14,"left_children":[1,3,5,7,-1,9,11,13,-1,15,17,19,21,23,25,27,29,31,33,35,37,-1,-1,-1,-1,-1,-1,-1,-1,-1,-1,-1,-1,-1,-1,-1,-1,-1,-1],"loss_changes":[2.3690682E7,1.177159E6,5.4027172E7,2.056941E6,0E0,3.8435975E5,2.305412E6,7.864855E4,0E0,6.705925E4,2.3536834E5,7.99828E5,1.534E4,1.9449025E5,5.671393E4,1.5463156E4,4.2262375E4,1.3744125E5,6.2646375E4,1.5372475E5,4.0096E4,0E0,0E0,0E0,0E0,0E0,0E0,0E0,0E0,0E0,0E0,0E0,0E0,0E0,0E0,0E0,0E0,0E0,0E0],"parents":[2147483647,0,0,1,1,2,2,3,3,5,5,6,6,7,7,9,9,10,10,11,11,12,12,13,13,14,14,15,15,16,16,17,17,18,18,19,19,20,20],"right_children":[2,4,6,8,-1,10,12,14,-1,16,18,20,22,24,26,28,30,32,34,36,38,-1,-1,-1,-1,-1,-1,-1,-1,-1,-1,-1,-1,-1,-1,-1,-1,-1,-1],"split_conditions":[1E0,1E0,1E0,1E0,-1.7655334E1,5E0,2.012E3,2.011E3,-1.7169386E1,2.004E3,8E0,3E0,3E0,2.006E3,3E0,3E0,2.011E3,7E0,2.012E3,2.009E3,2.002E3,5.479369E1,9.058905E1,1.5114368E0,-7.2525134E0,-4.5837917E0,3.388197E0,-9.393435E0,-4.198451E0,-1.5480365E1,-1.0187005E1,-3.142389E0,5.449746E0,-8.2459345E0,-3.1916726E0,3.9122883E1,1.2551124E1,7.6597404E1,5.7533455E1],"split_indices":[4,2,6,5,0,1,0,0,0,0,1,1,1,0,1,1,0,1,0,0,0,0,0,0,0,0,0,0,0,0,0,0,0,0,0,0,0,0,0],"split_type":[0,0,0,0,0,0,0,0,0,0,0,0,0,0,0,0,0,0,0,0,0,0,0,0,0,0,0,0,0,0,0,0,0,0,0,0,0,0,0],"sum_hessian":[1.107E3,6.34E2,4.73E2,3.12E2,3.22E2,3.23E2,1.5E2,1.58E2,1.54E2,1.11E2,2.12E2,1.09E2,4.1E1,1E2,5.8E1,2.8E1,8.3E1,7.9E1,1.33E2,1.8E1,9.1E1,6E0,3.5E1,5.3E1,4.7E1,1E1,4.8E1,1.4E1,1.4E1,4.4E1,3.9E1,5.1E1,2.8E1,9.8E1,3.5E1,1.4E1,4E0,1.2E1,7.9E1],"tree_param":{"num_deleted":"0","num_feature":"8","num_nodes":"39","size_leaf_vector":"1"}},{"base_weights":[8.402802E0,-1.1859356E2,1.806423E2,-7.8382164E1,-1.5698334E1,-6.2140156E1,6.154585E2,-1.08679565E2,-7.232414E1,-1.0521432E2,-4.051052E1,5.2986615E2,7.611191E2,-2.936571E1,-1.227527E1,-5.93839E1,-7.96732E1,-1.2497769E2,-8.380766E1,-2.29737E0,-6.576198E1,4.5419916E2,6.632738E2,5.4951954E1,8.24143E1,1.0666107E0,-5.11593E0,-6.263164E0,-4.2070923E0,-1.0357459E1,-6.396875E0,-1.3110117E1,-8.183469E0,-3.734497E0,-9.536241E0,-2.656359E0,5.8463902E0,-8.824889E0,-4.109109E0,4.979092E1,1.2466414E1,7.553278E1,4.8949158E1],"categories":[],"categories_nodes":[],"categories_segments":[],"categories_sizes":[],"default_left":[0,0,0,0,0,0,0,0,0,0,0,0,0,0,0,0,0,0,0,0,0,0,0,0,0,0,0,0,0,0,0,0,0,0,0,0,0,0,0,0,0,0,0],"id":15,"left_children":[1,3,5,7,-1,9,11,13,15,17,19,21,23,25,-1,27,29,31,33,35,37,39,41,-1,-1,-1,-1,-1,-1,-1,-1,-1,-1,-1,-1,-1,-1,-1,-1,-1,-1,-1,-1],"loss_changes":[2.4585688E7,9.86473E5,5.0393108E7,5.050625E4,0E0,2.81763E5,1.72864E6,5.332125E4,2.0755125E4,3.2678875E4,1.9862612E5,8.19234E5,3.606E5,8.397604E3,0E0,3.0440938E3,5.6434625E4,2.744875E3,2.4355625E4,1.2393206E5,6.51655E4,1.003823E6,2.38173E5,0E0,0E0,0E0,0E0,0E0,0E0,0E0,0E0,0E0,0E0,0E0,0E0,0E0,0E0,0E0,0E0,0E0,0E0,0E0,0E0],"parents":[2147483647,0,0,1,1,2,2,3,3,5,5,6,6,7,7,8,8,9,9,10,10,11,11,12,12,13,13,15,15,16,16,17,17,18,18,19,19,20,20,21,21,22,22],"right_children":[2,4,6,8,-1,10,12,14,16,18,20,22,24,26,-1,28,30,32,34,36,38,40,42,-1,-1,-1,-1,-1,-1,-1,-1,-1,-1,-1,-1,-1,-1,-1,-1,-1,-1,-1,-1],"split_conditions":[1E0,1E0,1E0,3E0,-1.5698334E1,5E0,2.011E3,2.003E3,2.006E3,1E0,8E0,9E0,4E0,2E0,-1.227527E1,2.005E3,2.01E3,2.014E3,2.004E3,7E0,1E0,8E0,2.006E3,5.4951954E1,8.24143E1,1.0666107E0,-5.11593E0,-6.263164E0,-4.2070923E0,-1.0357459E1,-6.396875E0,-1.3110117E1,-8.183469E0,-3.734497E0,-9.536241E0,-2.656359E0,5.8463902E0,-8.824889E0,-4.109109E0,4.979092E1,1.2466414E1,7.553278E1,4.8949158E1],"split_indices":[4,5,6,1,0,1,0,0,0,5,1,1,1,1,0,0,0,0,0,1,5,1,0,0,0,0,0,0,0,0,0,0,0,0,0,0,0,0,0,0,0,0,0],"split_type":[0,0,0,0,0,0,0,0,0,0,0,0,0,0,0,0,0,0,0,0,0,0,0,0,0,0,0,0,0,0,0,0,0,0,0,0,0,0,0,0,0,0,0],"sum_hessian":[1.122E3,6.46E2,4.76E2,3.17E2,3.29E2,3.06E2,1.7E2,5E1,2.67E2,1.01E2,2.05E2,1.1E2,6E1,8E0,4.2E1,1E2,1.67E2,5E1,5.1E1,8.2E1,1.23E2,7.3E1,3.7E1,1.6E1,4.4E1,3E0,5E0,8.2E1,1.8E1,6.4E1,1.03E2,4.2E1,8E0,1.1E1,4E1,5.9E1,2.3E1,6.3E1,6E1,6.4E1,9E0,2.2E1,1.5E1],"tree_param":{"num_deleted":"0","num_feature":"8","num_nodes":"43","size_leaf_vector":"1"}},{"base_weights":[-1.2097661E0,-1.0273666E2,1.3345395E2,-8.8337166E1,-1.42800665E1,2.8122574E2,-1.5118978E1,-1.1985457E2,-7.67866E1,1.9917226E2,3.1736432E2,-9.185912E0,-1.2467055E1,-5.988685E1,-9.018751E1,1.7358656E2,2.718948E2,2.693314E2,4.029342E2,-7.0793953E0,-2.4154418E0,-8.24509E0,-1.2016017E1,2.264203E1,1.0522645E1,3.0151266E1,1.5689249E1,4.031544E1,2.1655806E1,4.2592766E1,6.3689637E0],"categories":[],"categories_nodes":[],"categories_segments":[],"categories_sizes":[],"default_left":[0,0,0,0,0,0,0,0,0,0,0,0,0,0,0,0,0,0,0,0,0,0,0,0,0,0,0,0,0,0,0],"id":16,"left_children":[1,3,5,7,-1,9,-1,11,13,15,17,-1,-1,19,21,23,25,27,29,-1,-1,-1,-1,-1,-1,-1,-1,-1,-1,-1,-1],"loss_changes":[1.5203289E7,3.53141E5,2.0148308E7,1.6153325E5,0E0,8.7086E5,0E0,5.266125E3,7.295825E4,1.37008E5,7.83382E5,0E0,0E0,5.9089062E4,3.4383125E4,2.5066525E5,3.4441875E4,9.15539E5,5.65702E5,0E0,0E0,0E0,0E0,0E0,0E0,0E0,0E0,0E0,0E0,0E0,0E0],"parents":[2147483647,0,0,1,1,2,2,3,3,5,5,7,7,8,8,9,9,10,10,13,13,14,14,15,15,16,16,17,17,18,18],"right_children":[2,4,6,8,-1,10,-1,12,14,16,18,-1,-1,20,22,24,26,28,30,-1,-1,-1,-1,-1,-1,-1,-1,-1,-1,-1,-1],"split_conditions":[1E0,1E0,1E0,4E0,-1.42800665E1,5E0,-1.5118978E1,2.003E3,8E0,2.013E3,2.011E3,-9.185912E0,-1.2467055E1,7E0,1.2E1,2.007E3,2.016E3,2.003E3,1.2E1,-7.0793953E0,-2.4154418E0,-8.24509E0,-1.2016017E1,2.264203E1,1.0522645E1,3.0151266E1,1.5689249E1,4.031544E1,2.1655806E1,4.2592766E1,6.3689637E0],"split_indices":[6,2,2,1,0,1,0,0,1,0,0,0,0,1,1,0,0,0,1,0,0,0,0,0,0,0,0,0,0,0,0],"split_type":[0,0,0,0,0,0,0,0,0,0,0,0,0,0,0,0,0,0,0,0,0,0,0,0,0,0,0,0,0,0,0],"sum_hessian":[1.11E3,6.33E2,4.77E2,4.68E2,1.65E2,3.14E2,1.63E2,1.23E2,3.45E2,9.8E1,2.16E2,2.1E1,1.02E2,1.55E2,1.9E2,7.5E1,2.3E1,1.41E2,7.5E1,1.18E2,3.7E1,1.54E2,3.6E1,4.1E1,3.4E1,1.7E1,6E0,3.8E1,1.03E2,7E1,5E0],"tree_param":{"num_deleted":"0","num_feature":"8","num_nodes":"31","size_leaf_vector":"1"}},{"base_weights":[2.706874E0,7.4800606E1,-9.524897E1,1.4299501E2,-1.3586699E2,-7.629007E1,-1.3029144E1,2.3931506E2,-6.883641E1,-1.2204764E1,-1.4601752E1,-2.5518744E1,-1.2822196E1,5.0540665E2,-2.50436E1,-1.1332992E2,-5.4177467E1,-6.9807976E1,-2.4983888E0,4.4120174E1,6.919582E1,1.8198227E0,-3.064222E0,-6.332523E0,-1.2288684E1,-6.4134316E0,-1.4970901E0,-8.013464E0,-2.6986787E0,3.8985584E0,-3.077319E0],"categories":[],"categories_nodes":[],"categories_segments":[],"categories_sizes":[],"default_left":[0,0,0,0,0,0,0,0,0,0,0,0,0,0,0,0,0,0,0,0,0,0,0,0,0,0,0,0,0,0,0],"id":17,"left_children":[1,3,5,7,9,11,-1,13,15,-1,-1,17,-1,19,21,23,25,27,29,-1,-1,-1,-1,-1,-1,-1,-1,-1,-1,-1,-1],"loss_changes":[7.8953805E6,9.27136E6,3.049705E5,9.953033E6,4.3425E3,8.140894E5,0E0,2.357777E7,9.365094E4,0E0,0E0,1.609151E5,0E0,1.694948E6,4.1471617E4,9.900125E3,4.4713562E4,2.1716219E4,1.2435956E5,0E0,0E0,0E0,0E0,0E0,0E0,0E0,0E0,0E0,0E0,0E0,0E0],"parents":[2147483647,0,0,1,1,2,2,3,3,4,4,5,5,7,7,8,8,11,11,13,13,14,14,15,15,16,16,17,17,18,18],"right_children":[2,4,6,8,10,12,-1,14,16,-1,-1,18,-1,20,22,24,26,28,30,-1,-1,-1,-1,-1,-1,-1,-1,-1,-1,-1,-1],"split_conditions":[1E0,1E0,1E0,1E0,2.008E3,1E0,-1.3029144E1,1E0,4E0,-1.2204764E1,-1.4601752E1,5E0,-1.2822196E1,2.013E3,2.002E3,2.003E3,2.013E3,2.014E3,8E0,4.4120174E1,6.919582E1,1.8198227E0,-3.064222E0,-6.332523E0,-1.2288684E1,-6.4134316E0,-1.4970901E0,-8.013464E0,-2.6986787E0,3.8985584E0,-3.077319E0],"split_indices":[5,2,3,7,0,2,0,3,1,0,0,1,0,0,0,0,0,0,1,0,0,0,0,0,0,0,0,0,0,0,0],"split_type":[0,0,0,0,0,0,0,0,0,0,0,0,0,0,0,0,0,0,0,0,0,0,0,0,0,0,0,0,0,0,0],"sum_hessian":[1.116E3,6.43E2,4.73E2,4.86E2,1.57E2,3.09E2,1.64E2,3.34E2,1.52E2,7.2E1,8.5E1,1.57E2,1.52E2,1.66E2,1.68E2,3.6E1,1.16E2,5.3E1,1.04E2,1.26E2,4E1,1.9E1,1.49E2,7E0,2.9E1,9.2E1,2.4E1,4.2E1,1.1E1,4.2E1,6.2E1],"tree_param":{"num_deleted":"0","num_feature":"8","num_nodes":"31","size_leaf_vector":"1"}},{"base_weights":[-5.495811E-1,-9.5245224E1,1.26956696E2,-7.092922E1,-1.1882605E2,-4.3059383E1,4.825227E2,-1.1669366E1,-1.7010147E1,-1.0423378E1,-1.2303712E1,-1.2118095E1,-6.0470646E1,4.3353165E2,6.588152E2,-3.2704433E1,4.3448343E0,-7.642382E1,2.4415376E0,-9.884436E1,-2.5700659E1,5.730075E2,3.873633E2,4.635907E1,8.038021E1,2.643566E0,-4.0833864E0,-4.636022E0,2.3671348E0,-4.7748017E0,-8.662267E0,1.6889089E0,-2.9328628E0,-5.5206256E0,-1.1059543E1,-7.3880777E0,-7.760364E-1,3.1931387E1,6.2530525E1,3.1798838E1,4.4621593E1],"categories":[],"categories_nodes":[],"categories_segments":[],"categories_sizes":[],"default_left":[0,0,0,0,0,0,0,0,0,0,0,0,0,0,0,0,0,0,0,0,0,0,0,0,0,0,0,0,0,0,0,0,0,0,0,0,0,0,0,0,0],"id":18,"left_children":[1,3,5,7,9,11,13,-1,15,-1,-1,17,19,21,23,25,27,29,31,33,35,37,39,-1,-1,-1,-1,-1,-1,-1,-1,-1,-1,-1,-1,-1,-1,-1,-1,-1,-1],"loss_changes":[1.3656039E7,3.63703E5,2.9158616E7,7.925745E5,7.3305E3,1.7543081E5,1.061716E6,0E0,5.0079625E4,0E0,0E0,1.1160245E5,2.7631862E5,5.8296E5,5.33124E5,4.2426133E4,6.381434E4,2.2980625E3,4.5477445E4,4.4661125E4,9.537124E4,1.85092E5,2.54151E5,0E0,0E0,0E0,0E0,0E0,0E0,0E0,0E0,0E0,0E0,0E0,0E0,0E0,0E0,0E0,0E0,0E0,0E0],"parents":[2147483647,0,0,1,1,2,2,3,3,4,4,5,5,6,6,8,8,11,11,12,12,13,13,14,14,15,15,16,16,17,17,18,18,19,19,20,20,21,21,22,22],"right_children":[2,4,6,8,10,12,14,-1,16,-1,-1,18,20,22,24,26,28,30,32,34,36,38,40,-1,-1,-1,-1,-1,-1,-1,-1,-1,-1,-1,-1,-1,-1,-1,-1,-1,-1],"split_conditions":[1E0,1E0,1E0,1E0,2.004E3,2.006E3,2.013E3,-1.1669366E1,2.01E3,-1.0423378E1,-1.2303712E1,3E0,2.011E3,2.003E3,6E0,2.001E3,4E0,2.002E3,1E1,2.007E3,4E0,3E0,7E0,4.635907E1,8.038021E1,2.643566E0,-4.0833864E0,-4.636022E0,2.3671348E0,-4.7748017E0,-8.662267E0,1.6889089E0,-2.9328628E0,-5.5206256E0,-1.1059543E1,-7.3880777E0,-7.760364E-1,3.1931387E1,6.2530525E1,3.1798838E1,4.4621593E1],"split_indices":[4,2,6,6,0,0,0,0,0,0,0,1,0,0,1,0,1,0,1,0,1,1,1,0,0,0,0,0,0,0,0,0,0,0,0,0,0,0,0,0,0],"split_type":[0,0,0,0,0,0,0,0,0,0,0,0,0,0,0,0,0,0,0,0,0,0,0,0,0,0,0,0,0,0,0,0,0,0,0,0,0,0,0,0,0],"sum_hessian":[1.129E3,6.48E2,4.81E2,3.21E2,3.27E2,3.26E2,1.55E2,1.73E2,1.48E2,7.9E1,2.48E2,1.18E2,2.08E2,1.24E2,3.1E1,8.5E1,6.3E1,2.1E1,9.7E1,9.8E1,1.1E2,2.8E1,9.6E1,1.5E1,1.6E1,1E1,7.5E1,1.7E1,4.6E1,7E0,1.4E1,6.7E1,3E1,2.2E1,7.6E1,2.9E1,8.1E1,6E0,2.2E1,4.7E1,4.9E1],"tree_param":{"num_deleted":"0","num_feature":"8","num_nodes":"41","size_leaf_vector":"1"}},{"base_weights":[4.916873E0,-8.409061E1,1.2766278E2,-6.0224693E1,-1.0748899E2,2.1468687E2,-5.6192177E1,-1.665696E1,-1.0475939E1,-9.846932E0,-1.1488221E1,4.4427258E2,-2.0475636E1,-6.5714226E1,-4.0020363E1,-3.5964394E-1,-2.6431925E1,3.8803043E2,5.3144855E1,-3.506096E1,1.2896707E1,-4.201898E1,-1.0403911E1,-3.6154168E0,-4.767286E0,-1.8832129E0,3.5762017E0,-8.245659E0,-1.3095585E0,4.616811E1,2.8512999E1,4.287335E-2,-8.14236E0,-3.9396474E-1,1.7204287E0,-3.3646054E0,-4.767847E0],"categories":[],"categories_nodes":[],"categories_segments":[],"categories_sizes":[],"default_left":[0,0,0,0,0,0,0,0,0,0,0,0,0,0,0,0,0,0,0,0,0,0,0,0,0,0,0,0,0,0,0,0,0,0,0,0,0],"id":19,"left_children":[1,3,5,7,9,11,13,15,-1,-1,-1,17,19,21,23,25,27,29,-1,31,33,35,-1,-1,-1,-1,-1,-1,-1,-1,-1,-1,-1,-1,-1,-1,-1],"loss_changes":[1.2476508E7,3.63203E5,7.691973E6,6.385461E5,1.089375E4,1.760982E7,2.1238375E4,2.6753855E4,0E0,0E0,0E0,6.0277E5,7.9305086E4,8.280766E4,5.1585938E1,4.3377914E4,7.73724E4,6.56545E5,0E0,1.8596458E5,3.6939756E3,1.2863828E3,0E0,0E0,0E0,0E0,0E0,0E0,0E0,0E0,0E0,0E0,0E0,0E0,0E0,0E0,0E0],"parents":[2147483647,0,0,1,1,2,2,3,3,4,4,5,5,6,6,7,7,11,11,12,12,13,13,14,14,15,15,16,16,17,17,19,19,20,20,21,21],"right_children":[2,4,6,8,10,12,14,16,-1,-1,-1,18,20,22,24,26,28,30,-1,32,34,36,-1,-1,-1,-1,-1,-1,-1,-1,-1,-1,-1,-1,-1,-1,-1],"split_conditions":[1E0,1E0,1E0,1E0,2.008E3,1E0,2.011E3,2.006E3,-1.0475939E1,-9.846932E0,-1.1488221E1,2.011E3,2.012E3,2.007E3,2.015E3,2.004E3,2.008E3,2.006E3,5.3144855E1,2.007E3,2.013E3,2.003E3,-1.0403911E1,-3.6154168E0,-4.767286E0,-1.8832129E0,3.5762017E0,-8.245659E0,-1.3095585E0,4.616811E1,2.8512999E1,4.287335E-2,-8.14236E0,-3.9396474E-1,1.7204287E0,-3.3646054E0,-4.767847E0],"split_indices":[4,2,7,5,0,5,0,0,0,0,0,0,0,0,0,0,0,0,0,0,0,0,0,0,0,0,0,0,0,0,0,0,0,0,0,0,0],"split_type":[0,0,0,0,0,0,0,0,0,0,0,0,0,0,0,0,0,0,0,0,0,0,0,0,0,0,0,0,0,0,0,0,0,0,0,0,0],"sum_hessian":[1.14E3,6.61E2,4.79E2,3.29E2,3.32E2,3.25E2,1.54E2,1.67E2,1.62E2,1.56E2,1.76E2,1.64E2,1.61E2,9.5E1,5.9E1,6.3E1,1.04E2,1.03E2,6.1E1,1.12E2,4.9E1,6E1,3.5E1,4.3E1,1.6E1,4.2E1,2.1E1,1.9E1,8.5E1,5.8E1,4.5E1,6.4E1,4.8E1,1E1,3.9E1,2.7E1,3.3E1],"tree_param":{"num_deleted":"0","num_feature":"8","num_nodes":"37","size_leaf_vector":"1"}},{"base_weights":[3.026137E0,-7.5881294E1,1.0289711E2,-5.510858E1,-9.680685E1,1.825001E2,-5.2302353E1,-1.7735743E1,-9.4498005E0,-8.997324E0,-1.0419058E1,3.8342413E2,-2.0706203E1,-6.11072E1,-3.0041603E1,3.093217E0,-2.4521488E1,3.354773E2,5.296658E1,8.829381E0,-4.1380795E1,-3.6789165E1,-8.368327E1,-2.104263E0,-3.1990254E0,-4.2848463E0,-4.0422568E-1,5.2491497E1,3.0034521E1,2.5513167E0,-4.3212867E-1,-8.237035E0,2.1263018E-1,-2.1823313E0,-4.410066E0,-8.974628E0,-4.686303E0],"categories":[],"categories_nodes":[],"categories_segments":[],"categories_sizes":[],"default_left":[0,0,0,0,0,0,0,0,0,0,0,0,0,0,0,0,0,0,0,0,0,0,0,0,0,0,0,0,0,0,0,0,0,0,0,0,0],"id":20,"left_children":[1,3,5,7,9,11,13,15,-1,-1,-1,17,19,21,23,-1,25,27,-1,29,31,33,35,-1,-1,-1,-1,-1,-1,-1,-1,-1,-1,-1,-1,-1,-1],"loss_changes":[9.070455E6,2.741645E5,6.285552E6,4.767547E5,6.7215E3,1.3726494E7,3.2072656E4,5.6240188E4,0E0,0E0,0E0,1.007308E6,1.02952234E5,6.4449094E4,2.2117188E2,0E0,5.53745E4,7.07539E5,0E0,1.5468453E4,1.7672545E5,5.712367E3,9.8584375E3,0E0,0E0,0E0,0E0,0E0,0E0,0E0,0E0,0E0,0E0,0E0,0E0,0E0,0E0],"parents":[2147483647,0,0,1,1,2,2,3,3,4,4,5,5,6,6,7,7,11,11,12,12,13,13,14,14,16,16,17,17,19,19,20,20,21,21,22,22],"right_children":[2,4,6,8,10,12,14,16,-1,-1,-1,18,20,22,24,-1,26,28,-1,30,32,34,36,-1,-1,-1,-1,-1,-1,-1,-1,-1,-1,-1,-1,-1,-1],"split_conditions":[1E0,1E0,1E0,1E0,2.009E3,1E0,2.012E3,2.002E3,-9.4498005E0,-8.997324E0,-1.0419058E1,2.013E3,2.007E3,2.006E3,2.013E3,3.093217E0,2.01E3,2.002E3,5.296658E1,2.003E3,2.012E3,2.002E3,2.011E3,-2.104263E0,-3.1990254E0,-4.2848463E0,-4.0422568E-1,5.2491497E1,3.0034521E1,2.5513167E0,-4.3212867E-1,-8.237035E0,2.1263018E-1,-2.1823313E0,-4.410066E0,-8.974628E0,-4.686303E0],"split_indices":[4,2,7,5,0,5,0,0,0,0,0,0,0,0,0,0,0,0,0,0,0,0,0,0,0,0,0,0,0,0,0,0,0,0,0,0,0],"split_type":[0,0,0,0,0,0,0,0,0,0,0,0,0,0,0,0,0,0,0,0,0,0,0,0,0,0,0,0,0,0,0,0,0,0,0,0,0],"sum_hessian":[1.149E3,6.42E2,5.07E2,3.24E2,3.18E2,3.35E2,1.72E2,1.67E2,1.57E2,1.72E2,1.46E2,1.68E2,1.67E2,1.22E2,5E1,2E1,1.47E2,1.29E2,3.9E1,6.9E1,9.8E1,6E1,6.2E1,1.1E1,3.9E1,7.7E1,7E1,1.8E1,1.11E2,3E1,3.9E1,5E1,4.8E1,2.1E1,3.9E1,5.2E1,1E1],"tree_param":{"num_deleted":"0","num_feature":"8","num_nodes":"37","size_leaf_vector":"1"}},{"base_weights":[-1.1279541E0,-5.9004314E1,8.1431564E1,-4.9801685E1,-8.615143E0,1.6475275E2,-9.006795E1,-3.3104794E1,-8.370319E0,3.376419E2,-1.931015E1,-6.7764254E0,-9.327187E0,-4.8577137E1,-1.5995469E1,2.810242E2,4.6743378E1,5.093901E0,-3.33073E1,-5.520616E0,-2.595514E0,7.43018E-1,-2.913122E0,3.5242374E1,2.0851093E1,-4.4142732E-1,4.1117415E0,-7.6052675E0,-2.0661776E0],"categories":[],"categories_nodes":[],"categories_segments":[],"categories_sizes":[],"default_left":[0,0,0,0,0,0,0,0,0,0,0,0,0,0,0,0,0,0,0,0,0,0,0,0,0,0,0,0,0],"id":21,"left_children":[1,3,5,7,-1,9,11,13,-1,15,17,-1,-1,19,21,23,-1,25,27,-1,-1,-1,-1,-1,-1,-1,-1,-1,-1],"loss_changes":[5.4376685E6,1.6284225E5,6.7166335E6,2.8138612E5,0E0,1.0062423E7,4.684375E3,8.869884E4,0E0,1.066446E6,5.2774086E4,0E0,0E0,2.5110281E4,5.006603E4,5.27096E5,0E0,1.970502E4,5.1401312E4,0E0,0E0,0E0,0E0,0E0,0E0,0E0,0E0,0E0,0E0],"parents":[2147483647,0,0,1,1,2,2,3,3,5,5,6,6,7,7,9,9,10,10,13,13,14,14,15,15,17,17,18,18],"right_children":[2,4,6,8,-1,10,12,14,-1,16,18,-1,-1,20,22,24,-1,26,28,-1,-1,-1,-1,-1,-1,-1,-1,-1,-1],"split_conditions":[1E0,1E0,1E0,1E0,-8.615143E0,1E0,2.002E3,1E0,-8.370319E0,2.012E3,2.006E3,-6.7764254E0,-9.327187E0,2.013E3,2.006E3,2.006E3,4.6743378E1,2.005E3,2.008E3,-5.520616E0,-2.595514E0,7.43018E-1,-2.913122E0,3.5242374E1,2.0851093E1,-4.4142732E-1,4.1117415E0,-7.6052675E0,-2.0661776E0],"split_indices":[6,3,2,2,0,3,0,5,0,0,0,0,0,0,0,0,0,0,0,0,0,0,0,0,0,0,0,0,0],"split_type":[0,0,0,0,0,0,0,0,0,0,0,0,0,0,0,0,0,0,0,0,0,0,0,0,0,0,0,0,0],"sum_hessian":[1.136E3,6.68E2,4.68E2,5.01E2,1.67E2,3.15E2,1.53E2,3.37E2,1.64E2,1.62E2,1.53E2,2.2E1,1.31E2,1.76E2,1.61E2,1.15E2,4.7E1,5.6E1,9.7E1,1.35E2,4.1E1,5.8E1,1.03E2,5.6E1,5.9E1,4.5E1,1.1E1,2.1E1,7.6E1],"tree_param":{"num_deleted":"0","num_feature":"8","num_nodes":"29","size_leaf_vector":"1"}},{"base_weights":[2.4894834E0,-5.9125668E1,8.607673E1,-7.803635E1,-4.0843807E1,1.487192E2,-4.5093353E1,-6.8968554E0,-8.203105E0,-5.85467E0,-7.68832E0,3.2468607E2,-1.5423099E1,-6.216242E1,-2.6030935E1,1.29545555E1,-1.652297E1,2.2258806E2,3.745538E2,-5.033546E1,2.808063E0,-7.900029E0,-5.1576637E1,9.403566E0,-5.9847927E1,-3.9919564E-1,3.9246762E0,-4.964772E0,-5.2773994E-1,1.810505E1,2.9989996E1,4.840376E1,3.1269373E1,-2.5192895E0,-5.9532733E0,4.308004E0,-2.3681116E0,-6.3091607E0,-2.632105E0,4.5386763E0,-9.683838E-1,-4.232832E0,-8.685809E0],"categories":[],"categories_nodes":[],"categories_segments":[],"categories_sizes":[],"default_left":[0,0,0,0,0,0,0,0,0,0,0,0,0,0,0,0,0,0,0,0,0,0,0,0,0,0,0,0,0,0,0,0,0,0,0,0,0,0,0,0,0,0,0],"id":22,"left_children":[1,3,5,7,9,11,13,-1,-1,15,-1,17,19,21,23,25,27,29,31,33,35,-1,37,39,41,-1,-1,-1,-1,-1,-1,-1,-1,-1,-1,-1,-1,-1,-1,-1,-1,-1,-1],"loss_changes":[5.716706E6,2.1772925E5,3.8768272E6,5.68025E3,4.118928E5,9.218879E6,4.8164656E4,0E0,0E0,3.372468E4,0E0,7.00704E5,1.05799164E5,1.0184781E4,8.923611E4,2.7335902E4,3.959621E4,1.1590425E5,5.39456E5,1.16810625E4,1.18365055E5,0E0,1.3461859E4,2.5852072E4,1.4305328E4,0E0,0E0,0E0,0E0,0E0,0E0,0E0,0E0,0E0,0E0,0E0,0E0,0E0,0E0,0E0,0E0,0E0,0E0],"parents":[2147483647,0,0,1,1,2,2,3,3,4,4,5,5,6,6,9,9,11,11,12,12,13,13,14,14,15,15,16,16,17,17,18,18,19,19,20,20,22,22,23,23,24,24],"right_children":[2,4,6,8,10,12,14,-1,-1,16,-1,18,20,22,24,26,28,30,32,34,36,-1,38,40,42,-1,-1,-1,-1,-1,-1,-1,-1,-1,-1,-1,-1,-1,-1,-1,-1,-1,-1],"split_conditions":[1E0,1E0,1E0,2.005E3,1E0,1E0,7E0,-6.8968554E0,-8.203105E0,2.006E3,-7.68832E0,5E0,5E0,3E0,1E1,9E0,4E0,2.012E3,8E0,2.005E3,8E0,-7.900029E0,2.011E3,8E0,1.2E1,-3.9919564E-1,3.9246762E0,-4.964772E0,-5.2773994E-1,1.810505E1,2.9989996E1,4.840376E1,3.1269373E1,-2.5192895E0,-5.9532733E0,4.308004E0,-2.3681116E0,-6.3091607E0,-2.632105E0,4.5386763E0,-9.683838E-1,-4.232832E0,-8.685809E0],"split_indices":[4,3,7,0,5,5,1,0,0,0,0,1,1,1,1,1,1,0,1,0,1,0,0,1,1,0,0,0,0,0,0,0,0,0,0,0,0,0,0,0,0,0,0],"split_type":[0,0,0,0,0,0,0,0,0,0,0,0,0,0,0,0,0,0,0,0,0,0,0,0,0,0,0,0,0,0,0,0,0,0,0,0,0,0,0,0,0,0,0],"sum_hessian":[1.108E3,6.38E2,4.7E2,3.12E2,3.26E2,3.18E2,1.52E2,1.01E2,2.11E2,1.66E2,1.6E2,1.53E2,1.65E2,7.9E1,7.3E1,6E1,1.06E2,5.2E1,1.01E2,5.6E1,1.09E2,2.8E1,5.1E1,3.6E1,3.7E1,3.7E1,2.3E1,2.6E1,8E1,3.6E1,1.6E1,3.4E1,6.7E1,1.6E1,4E1,4.3E1,6.6E1,3.4E1,1.7E1,1.2E1,2.4E1,2.4E1,1.3E1],"tree_param":{"num_deleted":"0","num_feature":"8","num_nodes":"43","size_leaf_vector":"1"}},{"base_weights":[-1.0517625E0,-5.5908142E1,7.231384E1,-4.0778988E1,-7.100542E1,1.2665259E2,-3.614458E1,-1.0923139E1,-6.968689E0,-6.454744E0,-7.649302E0,2.671221E2,-1.3733696E1,-2.112713E1,-4.5124893E1,6.2198925E0,-2.0778393E1,2.1628012E2,3.5718784E1,9.636155E0,-2.6373396E1,-7.6834254E0,-2.7986134E1,-6.6337555E1,-2.5405888E1,-2.8302476E-1,2.239197E0,-1.1304068E1,-1.2003766E0,3.6369766E1,1.786432E1,3.1126761E0,-1.3500512E-1,-6.708139E0,6.091477E-1,-1.9113334E0,4.3867698E-1,-3.3553338E0,-9.246444E-1,-3.480519E0,-7.3530335E0,-3.4109685E0,-1.5794737E0],"categories":[],"categories_nodes":[],"categories_segments":[],"categories_sizes":[],"default_left":[0,0,0,0,0,0,0,0,0,0,0,0,0,0,0,0,0,0,0,0,0,0,0,0,0,0,0,0,0,0,0,0,0,0,0,0,0,0,0,0,0,0,0],"id":23,"left_children":[1,3,5,7,9,11,13,15,-1,-1,-1,17,19,21,23,25,27,29,-1,31,33,35,37,39,41,-1,-1,-1,-1,-1,-1,-1,-1,-1,-1,-1,-1,-1,-1,-1,-1,-1,-1],"loss_changes":[4.6564475E6,1.4831138E5,2.9218572E6,2.8664106E5,6.75725E3,6.5112665E6,2.143361E4,2.8005812E4,0E0,0E0,0E0,6.78303E5,4.928854E4,5.6864375E3,4.139878E4,8.991309E3,8.3647625E4,5.34249E5,0E0,1.3971936E4,1.4313925E5,3.2569536E3,4.0715117E3,8.554219E3,4.0621914E3,0E0,0E0,0E0,0E0,0E0,0E0,0E0,0E0,0E0,0E0,0E0,0E0,0E0,0E0,0E0,0E0,0E0,0E0],"parents":[2147483647,0,0,1,1,2,2,3,3,4,4,5,5,6,6,7,7,11,11,12,12,13,13,14,14,15,15,16,16,17,17,19,19,20,20,21,21,22,22,23,23,24,24],"right_children":[2,4,6,8,10,12,14,16,-1,-1,-1,18,20,22,24,26,28,30,-1,32,34,36,38,40,42,-1,-1,-1,-1,-1,-1,-1,-1,-1,-1,-1,-1,-1,-1,-1,-1,-1,-1],"split_conditions":[1E0,1E0,1E0,1E0,2.008E3,1E0,2.006E3,2.006E3,-6.968689E0,-6.454744E0,-7.649302E0,2.011E3,2.006E3,2.002E3,2.011E3,2.004E3,2.007E3,2.002E3,3.5718784E1,2.002E3,2.011E3,2.001E3,2.005E3,2.007E3,2.014E3,-2.8302476E-1,2.239197E0,-1.1304068E1,-1.2003766E0,3.6369766E1,1.786432E1,3.1126761E0,-1.3500512E-1,-6.708139E0,6.091477E-1,-1.9113334E0,4.3867698E-1,-3.3553338E0,-9.246444E-1,-3.480519E0,-7.3530335E0,-3.4109685E0,-1.5794737E0],"split_indices":[4,2,7,5,0,5,0,0,0,0,0,0,0,0,0,0,0,0,0,0,0,0,0,0,0,0,0,0,0,0,0,0,0,0,0,0,0,0,0,0,0,0,0],"split_type":[0,0,0,0,0,0,0,0,0,0,0,0,0,0,0,0,0,0,0,0,0,0,0,0,0,0,0,0,0,0,0,0,0,0,0,0,0,0,0,0,0,0,0],"sum_hessian":[1.155E3,6.61E2,4.94E2,3.32E2,3.29E2,3.29E2,1.65E2,1.64E2,1.68E2,1.57E2,1.72E2,1.64E2,1.65E2,6.3E1,1.02E2,6E1,1.04E2,1.07E2,5.7E1,5.8E1,1.07E2,2.2E1,4.1E1,4.8E1,5.4E1,3.9E1,2.1E1,8E0,9.6E1,2E1,8.7E1,1.9E1,3.9E1,4.7E1,6E1,1.1E1,1.1E1,3.1E1,1E1,1E1,3.8E1,2.7E1,2.7E1],"tree_param":{"num_deleted":"0","num_feature":"8","num_nodes":"43","size_leaf_vector":"1"}},{"base_weights":[2.6476324E0,-4.8939476E1,7.184958E1,-6.3906425E1,-3.449817E1,-2.1721867E1,2.4909625E2,-5.327272E0,-6.6264465E1,-6.1011147E0,-6.2520847E0,-4.7988358E1,-6.6795406E0,1.9980748E2,3.4945023E2,-7.3055634E0,-6.3485184E0,-2.0911385E1,9.139537E0,-5.9915633E0,-3.544987E1,1.0530059E1,-3.977406E1,2.5003687E2,-1.5172432E2,4.5812494E2,2.2380792E2,-3.2073026E0,-1.5162466E0,9.508372E0,-6.725449E-1,-5.0452476E0,-7.924934E-1,-3.3776197E-1,4.3645234E0,-2.5309474E0,-6.644329E0,1.860287E1,6.0461514E1,-2.0602865E0,-1.7031202E1,3.1322515E1,5.472232E1,3.8827198E1,1.8707191E1],"categories":[],"categories_nodes":[],"categories_segments":[],"categories_sizes":[],"default_left":[0,0,0,0,0,0,0,0,0,0,0,0,0,0,0,0,0,0,0,0,0,0,0,0,0,0,0,0,0,0,0,0,0,0,0,0,0,0,0,0,0,0,0,0,0],"id":24,"left_children":[1,3,5,7,9,11,13,-1,15,17,-1,19,21,23,25,-1,-1,27,29,-1,31,33,35,37,39,41,43,-1,-1,-1,-1,-1,-1,-1,-1,-1,-1,-1,-1,-1,-1,-1,-1,-1,-1],"loss_changes":[4.0625248E6,1.3872012E5,8.065832E6,4.46875E3,2.6540288E5,1.25719266E5,7.61159E5,0E0,2.12875E2,3.7886055E4,0E0,1.5223781E4,1.1660567E5,2.0685185E6,6.347915E5,0E0,0E0,4.967922E3,1.1381024E5,0E0,2.396396E4,6.2322375E4,2.5321508E4,2.1798095E6,3.304975E4,1.90085E5,9.0492625E4,0E0,0E0,0E0,0E0,0E0,0E0,0E0,0E0,0E0,0E0,0E0,0E0,0E0,0E0,0E0,0E0,0E0,0E0],"parents":[2147483647,0,0,1,1,2,2,3,3,4,4,5,5,6,6,8,8,9,9,11,11,12,12,13,13,14,14,17,17,18,18,20,20,21,21,22,22,23,23,24,24,25,25,26,26],"right_children":[2,4,6,8,10,12,14,-1,16,18,-1,20,22,24,26,-1,-1,28,30,-1,32,34,36,38,40,42,44,-1,-1,-1,-1,-1,-1,-1,-1,-1,-1,-1,-1,-1,-1,-1,-1,-1,-1],"split_conditions":[1E0,1E0,1E0,2.003E3,1E0,5E0,9E0,-5.327272E0,4E0,7E0,-6.2520847E0,3E0,1E1,8E0,1.1E1,-7.3055634E0,-6.3485184E0,2.005E3,8E0,-5.9915633E0,2.011E3,2.012E3,1.2E1,7E0,2.002E3,1E1,2.002E3,-3.2073026E0,-1.5162466E0,9.508372E0,-6.725449E-1,-5.0452476E0,-7.924934E-1,-3.3776197E-1,4.3645234E0,-2.5309474E0,-6.644329E0,1.860287E1,6.0461514E1,-2.0602865E0,-1.7031202E1,3.1322515E1,5.472232E1,3.8827198E1,1.8707191E1],"split_indices":[4,3,6,0,5,1,1,0,1,1,0,1,1,1,1,0,0,0,1,0,0,0,1,1,0,1,0,0,0,0,0,0,0,0,0,0,0,0,0,0,0,0,0,0,0],"split_type":[0,0,0,0,0,0,0,0,0,0,0,0,0,0,0,0,0,0,0,0,0,0,0,0,0,0,0,0,0,0,0,0,0,0,0,0,0,0,0,0,0,0,0,0,0],"sum_hessian":[1.136E3,6.51E2,4.85E2,3.18E2,3.33E2,3.18E2,1.67E2,6.2E1,2.56E2,1.66E2,1.67E2,1.15E2,2.03E2,1.14E2,5.3E1,6.7E1,1.89E2,8.4E1,8.2E1,5.7E1,5.8E1,1.34E2,6.9E1,1E2,1.4E1,2.7E1,2.6E1,2.7E1,5.7E1,1.2E1,7E1,3.7E1,2.1E1,9.5E1,3.9E1,4.6E1,2.3E1,8.6E1,1.4E1,2E0,1.2E1,1.2E1,1.5E1,3E0,2.3E1],"tree_param":{"num_deleted":"0","num_feature":"8","num_nodes":"45","size_leaf_vector":"1"}},{"base_weights":[2.9031557E-1,-3.852059E1,5.2037605E1,-5.4163307E1,-3.0359737E1,8.43053E1,-9.048265E0,-6.2102192E1,-4.545038E1,-2.2478176E1,-5.4088206E0,5.5250896E1,1.4271234E2,-3.8527634E1,-2.29374E0,-4.785782E0,-6.4775324E0,-5.149518E1,-3.4693596E1,-1.7029934E1,-6.375209E1,8.326682E1,-1.04331345E2,2.0084499E2,7.969334E1,-2.4707672E1,-5.2543083E1,4.489208E1,-7.436769E0,-4.0349326E0,-7.5050025E0,-1.0152915E0,-3.9183369E0,3.1584624E-2,-2.6484597E0,-4.0754294E0,-8.460492E0,4.2865214E0,3.1959986E1,-3.0832214E0,-1.1340598E1,1.5851537E1,3.2540874E1,1.9896673E1,5.7217674E0,-3.0699716E0,1.5485779E0,-7.341817E0,-3.8277767E0,7.2145534E0,2.6776142E0,-2.4393718E0,1.2187668E0],"categories":[],"categories_nodes":[],"categories_segments":[],"categories_sizes":[],"default_left":[0,0,0,0,0,0,0,0,0,0,0,0,0,0,0,0,0,0,0,0,0,0,0,0,0,0,0,0,0,0,0,0,0,0,0,0,0,0,0,0,0,0,0,0,0,0,0,0,0,0,0,0,0],"id":25,"left_children":[1,3,5,7,9,11,13,15,17,19,-1,21,23,25,27,-1,-1,29,31,33,35,37,39,41,43,45,47,49,51,-1,-1,-1,-1,-1,-1,-1,-1,-1,-1,-1,-1,-1,-1,-1,-1,-1,-1,-1,-1,-1,-1,-1,-1],"loss_changes":[2.319651E6,8.260981E4,9.764571E5,1.2740875E4,8.032375E4,5.4193725E5,3.416012E4,1.278875E3,5.430953E3,7.2896625E4,0E0,9.833315E5,3.7598425E5,4.899957E3,3.4551453E4,0E0,0E0,1.5086969E4,4.340008E3,4.789593E4,1.4775625E4,1.7622722E6,1.8513719E4,2.3841825E5,1.3069522E5,4.810545E3,1.6565625E3,4.980326E3,4.2891934E4,0E0,0E0,0E0,0E0,0E0,0E0,0E0,0E0,0E0,0E0,0E0,0E0,0E0,0E0,0E0,0E0,0E0,0E0,0E0,0E0,0E0,0E0,0E0,0E0],"parents":[2147483647,0,0,1,1,2,2,3,3,4,4,5,5,6,6,7,7,8,8,9,9,11,11,12,12,13,13,14,14,17,17,18,18,19,19,20,20,21,21,22,22,23,23,24,24,25,25,26,26,27,27,28,28],"right_children":[2,4,6,8,10,12,14,16,18,20,-1,22,24,26,28,-1,-1,30,32,34,36,38,40,42,44,46,48,50,52,-1,-1,-1,-1,-1,-1,-1,-1,-1,-1,-1,-1,-1,-1,-1,-1,-1,-1,-1,-1,-1,-1,-1,-1],"split_conditions":[1E0,5E0,1E0,3E0,1E0,9E0,3E0,2.003E3,2.011E3,1.2E1,-5.4088206E0,8E0,1.1E1,2.009E3,2.002E3,-4.785782E0,-6.4775324E0,2.008E3,2.012E3,2.006E3,2.008E3,7E0,2.002E3,2.013E3,2.002E3,2.008E3,2.011E3,6E0,2.01E3,-4.0349326E0,-7.5050025E0,-1.0152915E0,-3.9183369E0,3.1584624E-2,-2.6484597E0,-4.0754294E0,-8.460492E0,4.2865214E0,3.1959986E1,-3.0832214E0,-1.1340598E1,1.5851537E1,3.2540874E1,1.9896673E1,5.7217674E0,-3.0699716E0,1.5485779E0,-7.341817E0,-3.8277767E0,7.2145534E0,2.6776142E0,-2.4393718E0,1.2187668E0],"split_indices":[6,1,3,1,3,1,1,0,0,1,0,1,1,0,0,0,0,0,0,0,0,1,0,0,0,0,0,1,0,0,0,0,0,0,0,0,0,0,0,0,0,0,0,0,0,0,0,0,0,0,0,0,0],"split_type":[0,0,0,0,0,0,0,0,0,0,0,0,0,0,0,0,0,0,0,0,0,0,0,0,0,0,0,0,0,0,0,0,0,0,0,0,0,0,0,0,0,0,0,0,0,0,0,0,0,0,0,0,0],"sum_hessian":[1.153E3,6.59E2,4.94E2,2.24E2,4.35E2,3.23E2,1.71E2,1.14E2,1.1E2,3.28E2,1.07E2,2.17E2,1.06E2,3.1E1,1.4E2,2.1E1,9.3E1,6.8E1,4.2E1,2.91E2,3.7E1,1.85E2,3.2E1,5.4E1,5.2E1,1.7E1,1.4E1,1.3E1,1.27E2,4.8E1,2E1,7E0,3.5E1,1.03E2,1.88E2,1.9E1,1.8E1,1.59E2,2.6E1,4E0,2.8E1,4.2E1,1.2E1,7E0,4.5E1,1.5E1,2E0,4E0,1E1,4E0,9E0,6.8E1,5.9E1],"tree_param":{"num_deleted":"0","num_feature":"8","num_nodes":"53","size_leaf_vector":"1"}},{"base_weights":[-9.5557374E-1,-4.569153E1,6.059401E1,-3.1121237E1,-5.998758E1,-2.004041E1,2.1745242E2,-1.0218214E1,-5.1576853E0,-6.851878E1,-5.145477E0,-3.0393526E1,-1.0141563E1,1.6532294E2,3.0388895E2,2.8625073E0,-1.5617141E1,-6.2266536E0,-7.6924243E0,-1.8787554E1,-3.862074E1,-2.0034803E1,1.1589635E1,2.3373715E2,8.029061E1,2.3933065E1,3.3580654E1,-2.7242677E0,-1.8173902E-1,-2.3000133E0,-1.200688E0,-4.7628303E0,-1.5309299E0,1.4033693E0,-3.8683484E0,4.725851E-1,1.3580393E0,2.9803999E1,1.9543478E1,1.08931265E1,3.2350109E0],"categories":[],"categories_nodes":[],"categories_segments":[],"categories_sizes":[],"default_left":[0,0,0,0,0,0,0,0,0,0,0,0,0,0,0,0,0,0,0,0,0,0,0,0,0,0,0,0,0,0,0,0,0,0,0,0,0,0,0,0,0],"id":26,"left_children":[1,3,5,7,9,11,13,15,-1,17,-1,19,21,23,25,-1,27,-1,-1,29,31,33,35,37,39,-1,-1,-1,-1,-1,-1,-1,-1,-1,-1,-1,-1,-1,-1,-1,-1],"loss_changes":[3.0811588E6,1.3311012E5,5.9616545E6,1.3758266E5,2.02055E4,3.1666742E4,6.707025E5,3.4210684E4,0E0,3.6186875E3,0E0,1.3788094E4,3.48459E4,5.7461E5,4.12035E4,0E0,2.273148E4,0E0,0E0,1.5805098E3,1.7749031E4,7.106478E4,6.326919E2,7.967775E4,6.100928E4,0E0,0E0,0E0,0E0,0E0,0E0,0E0,0E0,0E0,0E0,0E0,0E0,0E0,0E0,0E0,0E0],"parents":[2147483647,0,0,1,1,2,2,3,3,4,4,5,5,6,6,7,7,9,9,11,11,12,12,13,13,14,14,16,16,19,19,20,20,21,21,22,22,23,23,24,24],"right_children":[2,4,6,8,10,12,14,16,-1,18,-1,20,22,24,26,-1,28,-1,-1,30,32,34,36,38,40,-1,-1,-1,-1,-1,-1,-1,-1,-1,-1,-1,-1,-1,-1,-1,-1],"split_conditions":[1E0,1E0,1E0,1E0,1E0,1E0,2.011E3,2.002E3,-5.1576853E0,2.01E3,-5.145477E0,2.007E3,2.012E3,2.006E3,2.013E3,2.8625073E0,2.01E3,-6.2266536E0,-7.6924243E0,2.004E3,2.014E3,2.004E3,2.013E3,2.002E3,2.009E3,2.3933065E1,3.3580654E1,-2.7242677E0,-1.8173902E-1,-2.3000133E0,-1.200688E0,-4.7628303E0,-1.5309299E0,1.4033693E0,-3.8683484E0,4.725851E-1,1.3580393E0,2.9803999E1,1.9543478E1,1.08931265E1,3.2350109E0],"split_indices":[4,2,6,5,5,5,0,0,0,0,0,0,0,0,0,0,0,0,0,0,0,0,0,0,0,0,0,0,0,0,0,0,0,0,0,0,0,0,0,0,0],"split_type":[0,0,0,0,0,0,0,0,0,0,0,0,0,0,0,0,0,0,0,0,0,0,0,0,0,0,0,0,0,0,0,0,0,0,0,0,0,0,0,0,0],"sum_hessian":[1.117E3,6.47E2,4.7E2,3.22E2,3.25E2,3.11E2,1.59E2,1.6E2,1.62E2,1.59E2,1.66E2,1.51E2,1.6E2,1.01E2,5.8E1,1.9E1,1.41E2,9.6E1,6.3E1,6.4E1,8.7E1,1.1E2,5E1,5.5E1,4.6E1,2.2E1,3.6E1,7.6E1,6.5E1,3.8E1,2.6E1,6.2E1,2.5E1,3.9E1,7.1E1,1.2E1,3.8E1,1.8E1,3.7E1,2.8E1,1.8E1],"tree_param":{"num_deleted":"0","num_feature":"8","num_nodes":"41","size_leaf_vector":"1"}},{"base_weights":[-9.837697E-2,-3.016778E1,3.9649433E1,-4.464773E1,-2.234713E1,8.9826775E1,-6.0945553E1,-5.027692E1,-3.8877502E1,-1.5419368E1,-4.420179E1,1.9086584E2,-2.9709039E0,-5.5545E0,-6.86004E0,-3.7070591E0,-5.1636634E0,-4.2126656E1,-2.2932215E1,-7.3093834E0,-4.058072E0,-3.1884163E1,-5.543251E1,4.4333714E1,2.207287E2,-3.2929962E1,3.5444925E0,-2.6434562E0,-4.8199363E0,-1.0915508E0,-4.712294E0,7.9074866E-1,-4.100776E0,-2.6159818E0,-4.660457E0,-6.325E0,-3.8525822E0,9.943741E0,-3.208893E-1,1.7495481E1,2.8275894E1,-7.688792E-1,-3.7488308E0,8.516758E-1,-3.6455166E0],"categories":[],"categories_nodes":[],"categories_segments":[],"categories_sizes":[],"default_left":[0,0,0,0,0,0,0,0,0,0,0,0,0,0,0,0,0,0,0,0,0,0,0,0,0,0,0,0,0,0,0,0,0,0,0,0,0,0,0,0,0,0,0,0,0],"id":27,"left_children":[1,3,5,7,9,11,13,15,17,19,21,23,25,-1,-1,-1,-1,27,29,31,-1,33,35,37,39,41,43,-1,-1,-1,-1,-1,-1,-1,-1,-1,-1,-1,-1,-1,-1,-1,-1,-1,-1],"loss_changes":[1.3708871E6,7.294969E4,2.4989838E6,5.4511875E3,6.38165E4,3.09471E6,3.01075E3,9.696875E1,5.095547E3,6.602227E4,1.2342828E4,6.816015E5,3.3885477E4,0E0,0E0,0E0,0E0,7.8740312E3,5.880871E3,1.2698188E5,0E0,3.0783281E3,4.4359844E3,7.3672734E4,3.22487E5,3.2785625E3,2.8751598E4,0E0,0E0,0E0,0E0,0E0,0E0,0E0,0E0,0E0,0E0,0E0,0E0,0E0,0E0,0E0,0E0,0E0,0E0],"parents":[2147483647,0,0,1,1,2,2,3,3,4,4,5,5,6,6,7,7,8,8,9,9,10,10,11,11,12,12,17,17,18,18,19,19,21,21,22,22,23,23,24,24,25,25,26,26],"right_children":[2,4,6,8,10,12,14,16,18,20,22,24,26,-1,-1,-1,-1,28,30,32,-1,34,36,38,40,42,44,-1,-1,-1,-1,-1,-1,-1,-1,-1,-1,-1,-1,-1,-1,-1,-1,-1,-1],"split_conditions":[1E0,5E0,1E0,3E0,1.1E1,1E0,2.01E3,2.002E3,2.014E3,1E0,2.008E3,3E0,3E0,-5.5545E0,-6.86004E0,-3.7070591E0,-5.1636634E0,2.004E3,2.016E3,1E0,-4.058072E0,1E0,2.013E3,2.007E3,9E0,2.003E3,1.2E1,-2.6434562E0,-4.8199363E0,-1.0915508E0,-4.712294E0,7.9074866E-1,-4.100776E0,-2.6159818E0,-4.660457E0,-6.325E0,-3.8525822E0,9.943741E0,-3.208893E-1,1.7495481E1,2.8275894E1,-7.688792E-1,-3.7488308E0,8.516758E-1,-3.6455166E0],"split_indices":[6,1,2,1,1,3,0,0,0,3,0,1,1,0,0,0,0,0,0,2,0,2,0,0,1,0,1,0,0,0,0,0,0,0,0,0,0,0,0,0,0,0,0,0,0],"split_type":[0,0,0,0,0,0,0,0,0,0,0,0,0,0,0,0,0,0,0,0,0,0,0,0,0,0,0,0,0,0,0,0,0,0,0,0,0,0,0,0,0,0,0,0,0],"sum_hessian":[1.145E3,6.52E2,4.93E2,2.27E2,4.25E2,3.29E2,1.64E2,1.11E2,1.16E2,3.24E2,1.01E2,1.57E2,1.72E2,1.01E2,6.3E1,1.3E1,9.8E1,9.5E1,2.1E1,2.46E2,7.8E1,5E1,5.1E1,2.7E1,1.3E2,3E1,1.42E2,2.8E1,6.7E1,1.5E1,6E0,1.7E2,7.6E1,3.8E1,1.2E1,3.3E1,1.8E1,1.2E1,1.5E1,7.7E1,5.3E1,5E0,2.5E1,1.27E2,1.5E1],"tree_param":{"num_deleted":"0","num_feature":"8","num_nodes":"45","size_leaf_vector":"1"}},{"base_weights":[2.0311558E0,-3.833213E1,5.445763E1,-2.8163883E1,-4.803252E1,-1.593055E1,1.9106459E2,-4.057848E0,-1.5648329E1,-4.18076E0,-5.434857E1,4.1936374E-1,-2.5693779E1,1.4629066E2,2.6902637E2,-2.5087553E1,7.3324794E-1,-4.33599E0,-5.751984E0,1.4629697E1,-1.476149E1,-4.7587574E1,-3.5455902E0,2.086924E2,8.573386E1,2.0926721E2,2.8823206E1,-6.635346E-1,-4.4554787E0,1.2636157E0,-4.9389648E-1,3.0509222E0,5.963525E-1,-6.6935694E-1,-2.407556E0,-1.451683E0,-5.410764E0,1.0402994E0,-1.4940042E0,2.454394E1,1.6250544E1,1.19096365E1,3.6288166E0,2.6103117E1,1.4175293E1],"categories":[],"categories_nodes":[],"categories_segments":[],"categories_sizes":[],"default_left":[0,0,0,0,0,0,0,0,0,0,0,0,0,0,0,0,0,0,0,0,0,0,0,0,0,0,0,0,0,0,0,0,0,0,0,0,0,0,0,0,0,0,0,0,0],"id":28,"left_children":[1,3,5,7,9,11,13,-1,15,-1,17,19,21,23,25,27,29,-1,-1,31,33,35,37,39,41,43,-1,-1,-1,-1,-1,-1,-1,-1,-1,-1,-1,-1,-1,-1,-1,-1,-1,-1,-1],"loss_changes":[2.359428E6,6.0787812E4,4.6665685E6,4.7531406E4,1.03485625E4,5.1251344E4,5.366015E5,0E0,2.4140574E4,0E0,2.9422812E3,2.6318678E4,9.729775E4,3.8644525E5,7.398E3,3.5266492E4,3.978328E3,0E0,0E0,8.487783E3,4.272415E3,2.0992516E4,1.6208005E4,4.837075E4,8.805759E4,2.5904625E4,0E0,0E0,0E0,0E0,0E0,0E0,0E0,0E0,0E0,0E0,0E0,0E0,0E0,0E0,0E0,0E0,0E0,0E0,0E0],"parents":[2147483647,0,0,1,1,2,2,3,3,4,4,5,5,6,6,8,8,10,10,11,11,12,12,13,13,14,14,15,15,16,16,19,19,20,20,21,21,22,22,23,23,24,24,25,25],"right_children":[2,4,6,8,10,12,14,-1,16,-1,18,20,22,24,26,28,30,-1,-1,32,34,36,38,40,42,44,-1,-1,-1,-1,-1,-1,-1,-1,-1,-1,-1,-1,-1,-1,-1,-1,-1,-1,-1],"split_conditions":[1E0,1E0,1E0,1E0,1E0,2.006E3,2.011E3,-4.057848E0,2.011E3,-4.18076E0,2.004E3,1E0,2.011E3,2.006E3,2.013E3,2.006E3,2.013E3,-4.33599E0,-5.751984E0,2.002E3,2.003E3,2.007E3,1E0,2.003E3,2.009E3,2.012E3,2.8823206E1,-6.635346E-1,-4.4554787E0,1.2636157E0,-4.9389648E-1,3.0509222E0,5.963525E-1,-6.6935694E-1,-2.407556E0,-1.451683E0,-5.410764E0,1.0402994E0,-1.4940042E0,2.454394E1,1.6250544E1,1.19096365E1,3.6288166E0,2.6103117E1,1.4175293E1],"split_indices":[4,2,6,6,6,0,0,0,0,0,0,7,0,0,0,0,0,0,0,0,0,0,7,0,0,0,0,0,0,0,0,0,0,0,0,0,0,0,0,0,0,0,0,0,0],"split_type":[0,0,0,0,0,0,0,0,0,0,0,0,0,0,0,0,0,0,0,0,0,0,0,0,0,0,0,0,0,0,0,0,0,0,0,0,0,0,0,0,0,0,0,0,0],"sum_hessian":[1.113E3,6.29E2,4.84E2,3.09E2,3.2E2,3.2E2,1.64E2,1.54E2,1.55E2,1.65E2,1.55E2,1.2E2,2E2,1.06E2,5.8E1,9.8E1,5.7E1,3.8E1,1.17E2,6.2E1,5.8E1,1E2,1E2,5.1E1,5.5E1,1.7E1,4.1E1,5.1E1,4.7E1,1.8E1,3.9E1,2.1E1,4.1E1,3.2E1,2.6E1,1.7E1,8.3E1,4.5E1,5.5E1,2.6E1,2.5E1,3.2E1,2.3E1,8E0,9E0],"tree_param":{"num_deleted":"0","num_feature":"8","num_nodes":"45","size_leaf_vector":"1"}},{"base_weights":[-5.792761E-1,-3.302147E1,4.367363E1,-2.1974995E1,-4.4068306E1,-1.2430559E1,1.552584E1,-6.218466E-1,-3.750285E0,-4.9879336E0,-3.783919E0,-2.4125388E0,-6.58041E-2],"categories":[],"categories_nodes":[],"categories_segments":[],"categories_sizes":[],"default_left":[0,0,0,0,0,0,0,0,0,0,0,0,0],"id":29,"left_children":[1,3,5,7,9,11,-1,-1,-1,-1,-1,-1,-1],"loss_changes":[1.6223038E6,7.859425E4,2.9943882E6,8.001694E4,9.8768125E3,4.3903266E4,0E0,0E0,0E0,0E0,0E0,0E0,0E0],"parents":[2147483647,0,0,1,1,2,2,3,3,4,4,5,5],"right_children":[2,4,6,8,10,12,-1,-1,-1,-1,-1,-1,-1],"split_conditions":[1E0,1E0,1E0,1E0,1E0,1E0,1.552584E1,-6.218466E-1,-3.750285E0,-4.9879336E0,-3.783919E0,-2.4125388E0,-6.58041E-2],"split_indices":[4,2,6,5,5,5,0,0,0,0,0,0,0],"split_type":[0,0,0,0,0,0,0,0,0,0,0,0,0],"sum_hessian":[1.128E3,6.51E2,4.77E2,3.27E2,3.24E2,3.18E2,1.59E2,1.63E2,1.64E2,1.64E2,1.6E2,1.59E2,1.59E2],"tree_param":{"num_deleted":"0","num_feature":"8","num_nodes":"13","size_leaf_vector":"1"}},{"base_weights":[4.004035E0,-2.1424463E1,3.7640507E1,-3.355025E1,-1.501158E1,7.666083E1,-4.3827213E1,-3.9458187E1,-2.723361E1,-8.280993E0,-3.738526E1,1.6216782E2,-4.294064E0,-3.8413334E0,-5.126323E0,-3.568804E1,-4.365413E0,-1.4206238E1,-3.0664078E1,-1.6048602E0,-3.0022612E0,-2.5619532E1,-4.8628143E1,7.295879E1,1.804001E2,2.589666E1,-8.925557E0,-3.8228786E0,-1.2806646E0,-7.0957726E-1,-3.1476612E0,-3.7170956E0,-2.245707E0,1.1199712E0,-2.8775003E0,-3.150874E-1,-2.861183E0,-3.2649815E0,-6.1507063E0,1.1591122E1,1.1178015E0,1.4209978E1,2.452632E1,-4.691315E-3,3.7249906E0,-1.6200832E0,7.208035E-1],"categories":[],"categories_nodes":[],"categories_segments":[],"categories_sizes":[],"default_left":[0,0,0,0,0,0,0,0,0,0,0,0,0,0,0,0,0,0,0,0,0,0,0,0,0,0,0,0,0,0,0,0,0,0,0,0,0,0,0,0,0,0,0,0,0,0,0],"id":30,"left_children":[1,3,5,7,9,11,13,15,17,19,21,23,25,-1,-1,27,-1,29,31,33,-1,35,37,39,41,43,45,-1,-1,-1,-1,-1,-1,-1,-1,-1,-1,-1,-1,-1,-1,-1,-1,-1,-1,-1,-1],"loss_changes":[9.7160025E5,4.9807875E4,1.5578402E6,7.2473906E3,6.3690312E4,2.291948E6,4.43175E3,2.2964062E2,4.5249766E3,4.7561E4,1.17176875E4,2.487015E5,2.4141754E4,0E0,0E0,3.2892344E3,0E0,2.8466597E3,3.8112188E3,8.799358E4,0E0,3.271496E3,8.0751953E3,7.565975E4,2.955575E5,6.776254E3,1.7605848E4,0E0,0E0,0E0,0E0,0E0,0E0,0E0,0E0,0E0,0E0,0E0,0E0,0E0,0E0,0E0,0E0,0E0,0E0,0E0,0E0],"parents":[2147483647,0,0,1,1,2,2,3,3,4,4,5,5,6,6,7,7,8,8,9,9,10,10,11,11,12,12,15,15,17,17,18,18,19,19,21,21,22,22,23,23,24,24,25,25,26,26],"right_children":[2,4,6,8,10,12,14,16,18,20,22,24,26,-1,-1,28,-1,30,32,34,-1,36,38,40,42,44,46,-1,-1,-1,-1,-1,-1,-1,-1,-1,-1,-1,-1,-1,-1,-1,-1,-1,-1,-1,-1],"split_conditions":[1E0,5E0,1E0,3E0,1.1E1,1E0,2.01E3,2.009E3,2.004E3,1E0,2.008E3,3E0,2.002E3,-3.8413334E0,-5.126323E0,2.008E3,-4.365413E0,1E0,2.011E3,1E0,-3.0022612E0,2.001E3,1.2E1,2.01E3,2.011E3,5E0,9E0,-3.8228786E0,-1.2806646E0,-7.0957726E-1,-3.1476612E0,-3.7170956E0,-2.245707E0,1.1199712E0,-2.8775003E0,-3.150874E-1,-2.861183E0,-3.2649815E0,-6.1507063E0,1.1591122E1,1.1178015E0,1.4209978E1,2.452632E1,-4.691315E-3,3.7249906E0,-1.6200832E0,7.208035E-1],"split_indices":[6,1,2,1,1,3,0,0,0,2,0,1,0,0,0,0,0,2,0,3,0,0,1,0,0,1,1,0,0,0,0,0,0,0,0,0,0,0,0,0,0,0,0,0,0,0,0],"split_type":[0,0,0,0,0,0,0,0,0,0,0,0,0,0,0,0,0,0,0,0,0,0,0,0,0,0,0,0,0,0,0,0,0,0,0,0,0,0,0,0,0,0,0,0,0,0,0],"sum_hessian":[1.134E3,6.46E2,4.88E2,2.22E2,4.24E2,3.3E2,1.58E2,1.12E2,1.1E2,3.27E2,9.7E1,1.6E2,1.7E2,9.5E1,6.3E1,6.4E1,4.8E1,2.4E1,8.6E1,2.51E2,7.6E1,4.9E1,4.8E1,2.8E1,1.32E2,2.2E1,1.48E2,5.7E1,7E0,1.8E1,6E0,4.6E1,4E1,1.71E2,8E1,6E0,4.3E1,2.3E1,2.5E1,1.6E1,1.2E1,8.5E1,4.7E1,7E0,1.5E1,1.02E2,4.6E1],"tree_param":{"num_deleted":"0","num_feature":"8","num_nodes":"47","size_leaf_vector":"1"}},{"base_weights":[1.3947121E0,-2.587761E1,3.8827744E1,-1.6526333E1,-3.5095013E1,6.0065918E1,-4.422231E0,-1.4934494E0,-3.0927717E1,-3.9770718E1,-3.0377888E1,7.897152E1,3.2670124E1,-2.5439838E1,7.1395564E0,-2.409395E1,3.3725355E0,-2.4760053E0,-3.229765E1,-3.4154213E1,-4.6140065E0,-3.3636644E0,-2.843642E1,4.7320362E1,2.472554E2,-1.3665198E2,8.0736725E1,-3.184297E1,1.2254843E0,3.5900677E1,-9.963826E0,-1.4108639E0,-3.3784738E0,-7.734841E-1,1.9669354E0,-3.5596979E0,-2.9430227E0,-2.9317734E0,-3.721777E0,-2.5158165E0,-3.3790283E0,1.0050277E0,6.5350313E0,1.8148796E1,3.8054745E1,-5.32814E0,-1.4742894E1,1.1466316E1,3.6430423E0,-1.2683599E0,-4.263696E0,1.6423725E0,-2.33368E0,1.9408592E0,6.39645E0,-1.6084675E-1,-4.0883126E0],"categories":[],"categories_nodes":[],"categories_segments":[],"categories_sizes":[],"default_left":[0,0,0,0,0,0,0,0,0,0,0,0,0,0,0,0,0,0,0,0,0,0,0,0,0,0,0,0,0,0,0,0,0,0,0,0,0,0,0,0,0,0,0,0,0,0,0,0,0,0,0,0,0,0,0,0,0],"id":31,"left_children":[1,3,5,7,9,11,13,15,17,19,21,23,25,27,29,31,33,-1,35,37,-1,-1,39,41,43,45,47,49,51,53,55,-1,-1,-1,-1,-1,-1,-1,-1,-1,-1,-1,-1,-1,-1,-1,-1,-1,-1,-1,-1,-1,-1,-1,-1,-1,-1],"loss_changes":[1.169919E6,5.6566875E4,4.4392562E5,7.161344E4,6.1365E3,1.652305E5,3.906181E4,1.800697E4,6.2821875E2,4.2909688E3,1.19046875E2,1.00563825E6,1.1016239E6,9.771289E3,5.1516605E4,2.329543E3,2.4589146E4,0E0,2.295625E2,2.571875E2,0E0,0E0,1.1331953E3,1.0820359E5,1.9392362E5,1.909925E4,1.53654E5,8.972293E3,4.8629185E3,1.6808941E4,1.69848E4,0E0,0E0,0E0,0E0,0E0,0E0,0E0,0E0,0E0,0E0,0E0,0E0,0E0,0E0,0E0,0E0,0E0,0E0,0E0,0E0,0E0,0E0,0E0,0E0,0E0,0E0],"parents":[2147483647,0,0,1,1,2,2,3,3,4,4,5,5,6,6,7,7,8,8,9,9,10,10,11,11,12,12,13,13,14,14,15,15,16,16,18,18,19,19,22,22,23,23,24,24,25,25,26,26,27,27,28,28,29,29,30,30],"right_children":[2,4,6,8,10,12,14,16,18,20,22,24,26,28,30,32,34,-1,36,38,-1,-1,40,42,44,46,48,50,52,54,56,-1,-1,-1,-1,-1,-1,-1,-1,-1,-1,-1,-1,-1,-1,-1,-1,-1,-1,-1,-1,-1,-1,-1,-1,-1,-1],"split_conditions":[1E0,1E0,1E0,1E0,1E0,8E0,5E0,3E0,2.003E3,2.009E3,5E0,7E0,9E0,2.014E3,8E0,2.009E3,2.01E3,-2.4760053E0,6E0,2.004E3,-4.6140065E0,-3.3636644E0,1E1,3E0,2.012E3,2.002E3,1.1E1,2.006E3,2.016E3,7E0,1.2E1,-1.4108639E0,-3.3784738E0,-7.734841E-1,1.9669354E0,-3.5596979E0,-2.9430227E0,-2.9317734E0,-3.721777E0,-2.5158165E0,-3.3790283E0,1.0050277E0,6.5350313E0,1.8148796E1,3.8054745E1,-5.32814E0,-1.4742894E1,1.1466316E1,3.6430423E0,-1.2683599E0,-4.263696E0,1.6423725E0,-2.33368E0,1.9408592E0,6.39645E0,-1.6084675E-1,-4.0883126E0],"split_indices":[4,2,5,5,5,1,1,1,0,0,1,1,1,0,1,0,0,0,1,0,0,0,1,1,0,0,1,0,0,1,1,0,0,0,0,0,0,0,0,0,0,0,0,0,0,0,0,0,0,0,0,0,0,0,0,0,0],"split_type":[0,0,0,0,0,0,0,0,0,0,0,0,0,0,0,0,0,0,0,0,0,0,0,0,0,0,0,0,0,0,0,0,0,0,0,0,0,0,0,0,0,0,0,0,0,0,0,0,0,0,0,0,0,0,0,0,0],"sum_hessian":[1.144E3,6.62E2,4.82E2,3.3E2,3.32E2,3.23E2,1.59E2,1.62E2,1.68E2,1.63E2,1.69E2,1.9E2,1.33E2,5.6E1,1.03E2,2.8E1,1.34E2,3.4E1,1.34E2,9E1,7.3E1,5.7E1,1.12E2,1.61E2,2.9E1,2.9E1,1.04E2,4.5E1,1.1E1,3.8E1,6.5E1,1.5E1,1.3E1,8E1,5.4E1,5.7E1,7.7E1,3.9E1,5.1E1,7.3E1,3.9E1,5.3E1,1.08E2,2.1E1,8E0,4E0,2.5E1,5.8E1,4.6E1,1.7E1,2.8E1,7E0,4E0,2.5E1,1.3E1,5.2E1,1.3E1],"tree_param":{"num_deleted":"0","num_feature":"8","num_nodes":"57","size_leaf_vector":"1"}},{"base_weights":[1.357543E0,-2.3179972E1,3.4224762E1,-3.1289639E1,-1.4741358E1,-1.5650726E1,1.3314359E2,-3.5360306E1,-2.7128567E1,-9.659922E-1,-2.8252398E1,-2.7110422E1,-4.989387E0,6.241032E1,1.6727742E2,-3.3113285E1,-4.080874E0,-3.1009943E0,-2.5563826E1,-9.915515E0,1.6453747E1,-3.2055614E0,-2.6178823E1,-4.6809244E0,-2.2929958E1,-3.0583198E0,6.106397E-1,3.506754E1,8.84543E1,2.635064E2,9.9564285E1,-3.5622444E0,-2.3596666E0,-2.3253124E0,-3.0003736E0,2.6476496E-1,-7.9963593E0,5.325023E0,-1.7103577E0,-2.4230015E0,-3.0719326E0,-1.971027E0,-5.014332E0,4.605437E-1,-3.8155136E0,7.2964554E0,-8.0412245E-1,1.4321057E1,4.1858706E0,1.7015253E1,4.162412E1,-2.189163E1,1.912828E1],"categories":[],"categories_nodes":[],"categories_segments":[],"categories_sizes":[],"default_left":[0,0,0,0,0,0,0,0,0,0,0,0,0,0,0,0,0,0,0,0,0,0,0,0,0,0,0,0,0,0,0,0,0,0,0,0,0,0,0,0,0,0,0,0,0,0,0,0,0,0,0,0,0],"id":32,"left_children":[1,3,5,7,9,11,13,15,17,19,21,23,25,27,29,31,-1,-1,33,35,37,-1,39,-1,41,-1,43,45,47,49,51,-1,-1,-1,-1,-1,-1,-1,-1,-1,-1,-1,-1,-1,-1,-1,-1,-1,-1,-1,-1,-1,-1],"loss_changes":[9.0566375E5,4.354203E4,2.3702235E6,4.5795625E3,5.8972594E4,3.8960953E4,3.7827825E5,6.3203125E2,2.1545312E2,2.4795088E4,4.22625E2,1.1608602E4,2.3954123E4,3.5352312E4,6.774885E5,2.024875E3,0E0,0E0,5.7446875E2,9.261441E4,6.758951E4,0E0,2.2016406E2,0E0,1.0314453E4,0E0,2.1546596E4,4.6330133E4,6.289322E4,5.5654425E5,1.940562E6,0E0,0E0,0E0,0E0,0E0,0E0,0E0,0E0,0E0,0E0,0E0,0E0,0E0,0E0,0E0,0E0,0E0,0E0,0E0,0E0,0E0,0E0],"parents":[2147483647,0,0,1,1,2,2,3,3,4,4,5,5,6,6,7,7,8,8,9,9,10,10,11,11,12,12,13,13,14,14,15,15,18,18,19,19,20,20,22,22,24,24,26,26,27,27,28,28,29,29,30,30],"right_children":[2,4,6,8,10,12,14,16,18,20,22,24,26,28,30,32,-1,-1,34,36,38,-1,40,-1,42,-1,44,46,48,50,52,-1,-1,-1,-1,-1,-1,-1,-1,-1,-1,-1,-1,-1,-1,-1,-1,-1,-1,-1,-1,-1,-1],"split_conditions":[1E0,1E0,1E0,1E0,1E0,1E0,5E0,1E1,4E0,9E0,5E0,3E0,3E0,3E0,8E0,8E0,-4.080874E0,-3.1009943E0,1E1,8E0,1.1E1,-3.2055614E0,1.1E1,-4.6809244E0,1.2E1,-3.0583198E0,1.2E1,2E0,4E0,7E0,9E0,-3.5622444E0,-2.3596666E0,-2.3253124E0,-3.0003736E0,2.6476496E-1,-7.9963593E0,5.325023E0,-1.7103577E0,-2.4230015E0,-3.0719326E0,-1.971027E0,-5.014332E0,4.605437E-1,-3.8155136E0,7.2964554E0,-8.0412245E-1,1.4321057E1,4.1858706E0,1.7015253E1,4.162412E1,-2.189163E1,1.912828E1],"split_indices":[4,3,6,5,5,5,1,1,1,1,1,1,1,1,1,1,0,0,1,1,1,0,1,0,1,0,1,1,1,1,1,0,0,0,0,0,0,0,0,0,0,0,0,0,0,0,0,0,0,0,0,0,0],"split_type":[0,0,0,0,0,0,0,0,0,0,0,0,0,0,0,0,0,0,0,0,0,0,0,0,0,0,0,0,0,0,0,0,0,0,0,0,0,0,0,0,0,0,0,0,0,0,0,0,0,0,0,0,0],"sum_hessian":[1.121E3,6.42E2,4.79E2,3.26E2,3.16E2,3.19E2,1.6E2,1.61E2,1.65E2,1.57E2,1.59E2,1.53E2,1.66E2,5.3E1,1.07E2,1.19E2,4.2E1,4.2E1,1.23E2,1.04E2,5.3E1,5.1E1,1.08E2,2.5E1,1.28E2,2.9E1,1.37E2,2.7E1,2.6E1,4.3E1,6.4E1,9.2E1,2.7E1,8.5E1,3.8E1,8.9E1,1.5E1,2.5E1,2.8E1,8E1,2.8E1,1.16E2,1.2E1,1.25E2,1.2E1,1.4E1,1.3E1,1.1E1,1.5E1,2.8E1,1.5E1,1.4E1,5E1],"tree_param":{"num_deleted":"0","num_feature":"8","num_nodes":"53","size_leaf_vector":"1"}},{"base_weights":[-1.9319899E0,-2.2692488E1,2.6096535E1,-1.6328924E1,-2.8890368E1,-1.2189963E1,1.0203577E2,-2.5474503E1,-7.79023E0,-2.4903564E0,-3.274963E1,5.993358E-2,-1.88134E1,2.1295023E2,8.5809715E1,-2.8336456E0,-2.2170208E1,-2.3941207E0,-3.6081097E1,-2.8317677E1,-3.8019388E0,-2.7899105E1,6.3054643E0,-4.072771E1,-1.9421414E-1,1.11300125E2,2.8600027E2,5.026038E1,1.4014066E2,-1.8808062E0,-2.8411152E0,-1.0337175E0,5.7085996E0,2.4643457E0,-4.771334E0,-1.887061E0,-2.948427E0,-1.5450605E0,-4.0047398E0,1.5879773E0,-2.078359E-1,-2.3124495E0,-5.3429666E0,-2.9200802E0,8.707742E-1,1.3286835E1,1.6684815E0,6.6928225E0,3.0121466E1,-3.4666526E0,6.0374413E0,1.8866077E1,6.232219E0],"categories":[],"categories_nodes":[],"categories_segments":[],"categories_sizes":[],"default_left":[0,0,0,0,0,0,0,0,0,0,0,0,0,0,0,0,0,0,0,0,0,0,0,0,0,0,0,0,0,0,0,0,0,0,0,0,0,0,0,0,0,0,0,0,0,0,0,0,0,0,0,0,0],"id":33,"left_children":[1,3,5,7,9,11,13,15,17,-1,19,21,23,25,27,-1,29,31,33,35,-1,37,39,41,43,45,47,49,51,-1,-1,-1,-1,-1,-1,-1,-1,-1,-1,-1,-1,-1,-1,-1,-1,-1,-1,-1,-1,-1,-1,-1,-1],"loss_changes":[6.6045106E5,2.52435E4,1.4055408E6,2.5103133E4,4.2464688E3,2.612705E4,2.7327888E5,8.4703125E2,2.5713258E4,0E0,2.7536406E3,2.0082486E4,8.526965E4,1.16679125E5,2.6915062E5,0E0,1.081332E3,6.815099E4,2.0247621E4,4.685625E2,0E0,2.5570312E3,7.5783193E3,2.022961E4,2.9690822E4,1.8189969E4,1.650375E4,7.768089E4,1.9968488E5,0E0,0E0,0E0,0E0,0E0,0E0,0E0,0E0,0E0,0E0,0E0,0E0,0E0,0E0,0E0,0E0,0E0,0E0,0E0,0E0,0E0,0E0,0E0,0E0],"parents":[2147483647,0,0,1,1,2,2,3,3,4,4,5,5,6,6,7,7,8,8,10,10,11,11,12,12,13,13,14,14,16,16,17,17,18,18,19,19,21,21,22,22,23,23,24,24,25,25,26,26,27,27,28,28],"right_children":[2,4,6,8,10,12,14,16,18,-1,20,22,24,26,28,-1,30,32,34,36,-1,38,40,42,44,46,48,50,52,-1,-1,-1,-1,-1,-1,-1,-1,-1,-1,-1,-1,-1,-1,-1,-1,-1,-1,-1,-1,-1,-1,-1,-1],"split_conditions":[1E0,1E0,1E0,1E0,1E0,2.006E3,2.002E3,7E0,1.1E1,-2.4903564E0,2.009E3,3E0,2.011E3,2.001E3,2.011E3,-2.8336456E0,1.1E1,1E1,2.002E3,2.001E3,-3.8019388E0,2E0,2.003E3,2.008E3,4E0,8E0,2E0,2E0,8E0,-1.8808062E0,-2.8411152E0,-1.0337175E0,5.7085996E0,2.4643457E0,-4.771334E0,-1.887061E0,-2.948427E0,-1.5450605E0,-4.0047398E0,1.5879773E0,-2.078359E-1,-2.3124495E0,-5.3429666E0,-2.9200802E0,8.707742E-1,1.3286835E1,1.6684815E0,6.6928225E0,3.0121466E1,-3.4666526E0,6.0374413E0,1.8866077E1,6.232219E0],"split_indices":[4,2,6,6,6,0,0,1,1,0,0,1,0,0,0,0,1,1,0,0,0,1,0,0,1,1,1,1,1,0,0,0,0,0,0,0,0,0,0,0,0,0,0,0,0,0,0,0,0,0,0,0,0],"split_type":[0,0,0,0,0,0,0,0,0,0,0,0,0,0,0,0,0,0,0,0,0,0,0,0,0,0,0,0,0,0,0,0,0,0,0,0,0,0,0,0,0,0,0,0,0,0,0,0,0,0,0,0,0],"sum_hessian":[1.133E3,6.51E2,4.82E2,3.23E2,3.28E2,3.21E2,1.61E2,1.55E2,1.68E2,1.65E2,1.63E2,1.13E2,2.08E2,1.9E1,1.42E2,7.9E1,7.6E1,1.42E2,2.6E1,9.2E1,7.1E1,2E1,9.3E1,9.5E1,1.13E2,9E0,1E1,8.7E1,5.5E1,5.2E1,2.4E1,1.26E2,1.6E1,4E0,2.2E1,1.2E1,8E1,1.1E1,9E0,4.3E1,5E1,4.1E1,5.4E1,2.6E1,8.7E1,7E0,2E0,1E0,9E0,9E0,7.8E1,3.3E1,2.2E1],"tree_param":{"num_deleted":"0","num_feature":"8","num_nodes":"53","size_leaf_vector":"1"}},{"base_weights":[-2.7536032E0,-2.141333E1,2.1864552E1,-1.5857761E1,-2.6603195E1,-1.1214386E1,8.2895004E1,-2.210644E1,-9.052548E0,-2.2672876E1,-3.0259817E1,-2.6610167E1,-3.4999862E0,4.4463578E-1,1.0011104E2,-2.5246627E0,-2.0131416E1,-1.6368446E1,-2.486616E-1,-2.5971563E0,-2.1362162E1,-2.795357E1,-3.4414327E0,-3.4259342E1,-1.9168774E1,1.9903387E1,-1.7169367E1,1.3576901E2,6.405313E1,-1.8230317E0,-2.578803E0,-1.0544444E0,-4.994843E0,6.4672904E0,-1.2146804E0,-1.9145628E0,-2.548283E0,-3.0479054E0,-9.253432E-1,-2.814049E0,-3.9497325E0,-6.6060984E-1,-2.9836223E0,4.2228227E0,-7.691665E-2,-1.0681744E0,-4.0514417E0,6.9553123E0,3.549006E1,-1.8225767E1,1.3206926E1],"categories":[],"categories_nodes":[],"categories_segments":[],"categories_sizes":[],"default_left":[0,0,0,0,0,0,0,0,0,0,0,0,0,0,0,0,0,0,0,0,0,0,0,0,0,0,0,0,0,0,0,0,0,0,0,0,0,0,0,0,0,0,0,0,0,0,0,0,0,0,0],"id":34,"left_children":[1,3,5,7,9,11,13,15,17,19,21,23,25,-1,27,-1,29,31,33,-1,35,37,-1,39,41,43,45,47,49,-1,-1,-1,-1,-1,-1,-1,-1,-1,-1,-1,-1,-1,-1,-1,-1,-1,-1,-1,-1,-1,-1],"loss_changes":[5.2093222E5,1.8175188E4,9.881339E5,1.3152289E4,4.0853281E3,3.767547E4,2.3185362E5,5.0266406E2,9.785998E3,1.5426562E2,6.572344E2,5.376867E3,6.8482484E4,0E0,1.7259475E5,0E0,6.5902344E2,1.5705625E4,5.485679E4,0E0,6.355469E2,5.101828E3,0E0,5.2310156E2,7.3075527E3,3.649189E4,2.0013512E4,9.910151E5,1.2302944E6,0E0,0E0,0E0,0E0,0E0,0E0,0E0,0E0,0E0,0E0,0E0,0E0,0E0,0E0,0E0,0E0,0E0,0E0,0E0,0E0,0E0,0E0],"parents":[2147483647,0,0,1,1,2,2,3,3,4,4,5,5,6,6,7,7,8,8,9,9,10,10,11,11,12,12,14,14,16,16,17,17,18,18,20,20,21,21,23,23,24,24,25,25,26,26,27,27,28,28],"right_children":[2,4,6,8,10,12,14,16,18,20,22,24,26,-1,28,-1,30,32,34,-1,36,38,-1,40,42,44,46,48,50,-1,-1,-1,-1,-1,-1,-1,-1,-1,-1,-1,-1,-1,-1,-1,-1,-1,-1,-1,-1,-1,-1],"split_conditions":[1E0,1E0,1E0,1E0,1E0,5E0,3E0,5E0,7E0,4E0,9E0,3E0,8E0,4.4463578E-1,8E0,-2.5246627E0,1.1E1,6E0,8E0,-2.5971563E0,1E1,8E0,-3.4414327E0,2E0,1E0,1E0,1.2E1,7E0,9E0,-1.8230317E0,-2.578803E0,-1.0544444E0,-4.994843E0,6.4672904E0,-1.2146804E0,-1.9145628E0,-2.548283E0,-3.0479054E0,-9.253432E-1,-2.814049E0,-3.9497325E0,-6.6060984E-1,-2.9836223E0,4.2228227E0,-7.691665E-2,-1.0681744E0,-4.0514417E0,6.9553123E0,3.549006E1,-1.8225767E1,1.3206926E1],"split_indices":[4,2,6,6,6,1,1,1,1,1,1,1,1,0,1,0,1,1,1,0,1,1,0,1,7,7,1,1,1,0,0,0,0,0,0,0,0,0,0,0,0,0,0,0,0,0,0,0,0,0,0],"split_type":[0,0,0,0,0,0,0,0,0,0,0,0,0,0,0,0,0,0,0,0,0,0,0,0,0,0,0,0,0,0,0,0,0,0,0,0,0,0,0,0,0,0,0,0,0,0,0,0,0,0,0],"sum_hessian":[1.132E3,6.44E2,4.88E2,3.13E2,3.31E2,3.17E2,1.71E2,1.62E2,1.51E2,1.63E2,1.68E2,1.05E2,2.12E2,3.1E1,1.4E2,5.8E1,1.04E2,8.2E1,6.9E1,4.1E1,1.22E2,1.13E2,5.5E1,5E1,5.5E1,7.8E1,1.34E2,6.9E1,7.1E1,8.1E1,2.3E1,7.1E1,1.1E1,1E1,5.9E1,8.3E1,3.9E1,9.9E1,1.4E1,2.6E1,2.4E1,2.6E1,2.9E1,3.7E1,4.1E1,1.06E2,2.8E1,5.4E1,1.5E1,1.5E1,5.6E1],"tree_param":{"num_deleted":"0","num_feature":"8","num_nodes":"51","size_leaf_vector":"1"}},{"base_weights":[5.951734E-2,-1.7468191E1,2.392843E1,-1.187532E1,-2.3228964E1,-9.783949E0,8.841886E1,-2.806341E0,-2.0718391E1,-2.6470081E1,-2.0003822E1,5.0812364E0,-1.7769007E1,6.2646626E1,1.4069864E1,2.1370478E0,-5.9899836E0,-1.4822339E0,-2.1307465E1,-2.3994053E1,-3.4698236E0,-1.6584551E0,-2.068143E0,-6.830375E0,1.4832388E1,-3.378111E1,-1.2826825E0,1.7608649E2,3.5430416E1,-1.6893533E0,6.5336436E-1,-2.2771323E0,-1.7777941E0,-1.8885647E0,-2.5184467E0,3.4173867E-1,-1.6445614E0,9.5513634E-2,1.7432717E0,-1.9275569E0,-4.3998427E0,-1.1783108E0,8.1156015E-1,9.968184E0,2.3145021E1,6.476683E0,1.1514193E0],"categories":[],"categories_nodes":[],"categories_segments":[],"categories_sizes":[],"default_left":[0,0,0,0,0,0,0,0,0,0,0,0,0,0,0,0,0,0,0,0,0,0,0,0,0,0,0,0,0,0,0,0,0,0,0,0,0,0,0,0,0,0,0,0,0,0,0],"id":35,"left_children":[1,3,5,7,9,11,13,15,17,19,21,23,25,27,-1,-1,29,-1,31,33,-1,-1,-1,35,37,39,41,43,45,-1,-1,-1,-1,-1,-1,-1,-1,-1,-1,-1,-1,-1,-1,-1,-1,-1,-1],"loss_changes":[4.861425E5,2.1311047E4,1.070535E6,2.7369445E4,2.9095625E3,3.8548883E4,2.1889075E5,1.3212969E4,2.8503125E2,2.4475156E3,4.85625E1,1.3342633E4,5.5656586E4,3.4881253E5,0E0,0E0,2.0729727E4,0E0,3.9601562E2,2.9667188E2,0E0,0E0,0E0,5.1800034E3,2.2567285E3,1.5010141E4,1.0457654E4,6.998969E4,6.5206203E4,0E0,0E0,0E0,0E0,0E0,0E0,0E0,0E0,0E0,0E0,0E0,0E0,0E0,0E0,0E0,0E0,0E0,0E0],"parents":[2147483647,0,0,1,1,2,2,3,3,4,4,5,5,6,6,7,7,8,8,9,9,10,10,11,11,12,12,13,13,16,16,18,18,19,19,23,23,24,24,25,25,26,26,27,27,28,28],"right_children":[2,4,6,8,10,12,14,16,18,20,22,24,26,28,-1,-1,30,-1,32,34,-1,-1,-1,36,38,40,42,44,46,-1,-1,-1,-1,-1,-1,-1,-1,-1,-1,-1,-1,-1,-1,-1,-1,-1,-1],"split_conditions":[1E0,1E0,1E0,1E0,1E0,2.006E3,2.011E3,2.002E3,2.002E3,2.013E3,2.003E3,1E0,2.011E3,2.002E3,1.4069864E1,2.1370478E0,2.01E3,-1.4822339E0,2.012E3,2.003E3,-3.4698236E0,-1.6584551E0,-2.068143E0,2.003E3,2.001E3,2.008E3,1E0,2.001E3,2.006E3,-1.6893533E0,6.5336436E-1,-2.2771323E0,-1.7777941E0,-1.8885647E0,-2.5184467E0,3.4173867E-1,-1.6445614E0,9.5513634E-2,1.7432717E0,-1.9275569E0,-4.3998427E0,-1.1783108E0,8.1156015E-1,9.968184E0,2.3145021E1,6.476683E0,1.1514193E0],"split_indices":[4,2,6,5,5,0,0,0,0,0,0,5,0,0,0,0,0,0,0,0,0,0,0,0,0,0,5,0,0,0,0,0,0,0,0,0,0,0,0,0,0,0,0,0,0,0,0],"split_type":[0,0,0,0,0,0,0,0,0,0,0,0,0,0,0,0,0,0,0,0,0,0,0,0,0,0,0,0,0,0,0,0,0,0,0,0,0,0,0,0,0,0,0,0,0,0,0],"sum_hessian":[1.16E3,6.69E2,4.91E2,3.41E2,3.28E2,3.23E2,1.68E2,1.69E2,1.72E2,1.6E2,1.68E2,1.13E2,2.1E2,1.14E2,5.4E1,1.9E1,1.5E2,1.8E1,1.54E2,1.26E2,3.4E1,3.2E1,1.36E2,5.1E1,6.2E1,1.06E2,1.04E2,2.1E1,9.3E1,8E1,7E1,1.05E2,4.9E1,2.7E1,9.9E1,2.5E1,2.6E1,1E1,5.2E1,4.5E1,6.1E1,4.9E1,5.5E1,1E1,1.1E1,4.1E1,5.2E1],"tree_param":{"num_deleted":"0","num_feature":"8","num_nodes":"47","size_leaf_vector":"1"}},{"base_weights":[-7.8246206E-1,-1.8012676E1,2.1382338E1,-1.2285604E1,-2.1171848E1,-6.413198E0,7.2190445E1,-5.5170994E0,-1.9373144E1,-2.6458391E1,-1.7945705E1,3.328595E0,-1.6488565E1,1.6646795E1,5.8070076E1,-1.7144552E1,7.454673E0,-1.7413332E0,-2.276917E0,-1.8359634E1,-3.3607136E1,-1.1502157E1,-2.4503431E1,1.6546923E1,-3.8107753E0,-3.0151098E0,-2.0078882E1,2.1232573E1,1.157761E1,-1.3207966E0,-2.0422354E0,-6.0401016E-1,3.405187E0,-2.0574272E0,-1.5511972E0,-4.5773335E0,-2.1214721E0,-1.7212836E0,-5.3440696E-1,-1.9752753E0,-2.8584783E0,2.2537217E0,1.0795798E0,-2.4335716E0,1.2330607E0,-1.0808278E0,1.181983E-1,-2.8132672E0,-6.908739E-1,4.736378E0,-3.340065E0],"categories":[],"categories_nodes":[],"categories_segments":[],"categories_sizes":[],"default_left":[0,0,0,0,0,0,0,0,0,0,0,0,0,0,0,0,0,0,0,0,0,0,0,0,0,0,0,0,0,0,0,0,0,0,0,0,0,0,0,0,0,0,0,0,0,0,0,0,0,0,0],"id":36,"left_children":[1,3,5,7,9,11,13,15,17,19,21,23,25,-1,27,29,31,-1,-1,33,35,37,39,41,43,45,47,49,-1,-1,-1,-1,-1,-1,-1,-1,-1,-1,-1,-1,-1,-1,-1,-1,-1,-1,-1,-1,-1,-1,-1],"loss_changes":[4.269722E5,1.1120266E4,6.910476E5,1.0734801E4,6.415453E3,3.1169111E4,2.2063638E5,1.7774764E4,3.35625E2,8.1252734E3,1.04509375E4,1.5351082E4,7.485801E3,0E0,3.206552E5,5.3026953E2,2.0305375E4,0E0,0E0,1.4122852E2,1.0939648E4,4.479705E3,1.8590234E3,1.7203955E3,3.5417965E4,1.1248694E3,1.2852199E4,1.3577939E5,0E0,0E0,0E0,0E0,0E0,0E0,0E0,0E0,0E0,0E0,0E0,0E0,0E0,0E0,0E0,0E0,0E0,0E0,0E0,0E0,0E0,0E0,0E0],"parents":[2147483647,0,0,1,1,2,2,3,3,4,4,5,5,6,6,7,7,8,8,9,9,10,10,11,11,12,12,14,14,15,15,16,16,19,19,20,20,21,21,22,22,23,23,24,24,25,25,26,26,27,27],"right_children":[2,4,6,8,10,12,14,16,18,20,22,24,26,-1,28,30,32,-1,-1,34,36,38,40,42,44,46,48,50,-1,-1,-1,-1,-1,-1,-1,-1,-1,-1,-1,-1,-1,-1,-1,-1,-1,-1,-1,-1,-1,-1,-1],"split_conditions":[1E0,2.006E3,1E0,1E0,2.01E3,1E0,2.002E3,1E0,2.004E3,1E0,1E0,2.006E3,2.003E3,1.6646795E1,2.011E3,2.003E3,2.004E3,-1.7413332E0,-2.276917E0,1E0,1E0,1E0,1E0,2.003E3,2.011E3,2.001E3,2.012E3,2.008E3,1.157761E1,-1.3207966E0,-2.0422354E0,-6.0401016E-1,3.405187E0,-2.0574272E0,-1.5511972E0,-4.5773335E0,-2.1214721E0,-1.7212836E0,-5.3440696E-1,-1.9752753E0,-2.8584783E0,2.2537217E0,1.0795798E0,-2.4335716E0,1.2330607E0,-1.0808278E0,1.181983E-1,-2.8132672E0,-6.908739E-1,4.736378E0,-3.340065E0],"split_indices":[4,0,6,2,0,7,0,6,0,6,2,0,0,0,0,0,0,0,0,2,2,6,6,0,0,0,0,0,0,0,0,0,0,0,0,0,0,0,0,0,0,0,0,0,0,0,0,0,0,0,0],"split_type":[0,0,0,0,0,0,0,0,0,0,0,0,0,0,0,0,0,0,0,0,0,0,0,0,0,0,0,0,0,0,0,0,0,0,0,0,0,0,0,0,0,0,0,0,0,0,0,0,0,0,0],"sum_hessian":[1.116E3,6.28E2,4.88E2,2.25E2,4.03E2,3.16E2,1.72E2,1.16E2,1.09E2,1.5E2,2.53E2,1.61E2,1.55E2,2.1E1,1.51E2,6.1E1,5.5E1,7.3E1,3.6E1,7.2E1,7.8E1,1.29E2,1.24E2,5.6E1,1.05E2,3.3E1,1.22E2,9.3E1,5.8E1,3E1,3.1E1,3.7E1,1.8E1,3.7E1,3.5E1,3.8E1,4E1,6.6E1,6.3E1,6E1,6.4E1,2.6E1,3E1,4.6E1,5.9E1,1.1E1,2.2E1,7.5E1,4.7E1,6.3E1,3E1],"tree_param":{"num_deleted":"0","num_feature":"8","num_nodes":"51","size_leaf_vector":"1"}},{"base_weights":[1.9917308E0,-1.4104782E1,2.3112324E1,-9.025795E0,-1.9396297E1,4.075694E1,-1.3865266E1,-1.2851306E0,-1.7439943E1,-2.2353865E1,-1.6335342E1,7.972678E1,2.6935203E0,-1.2112505E0,-1.6776106E1,-2.0891336E1,3.111259E0,-2.0991E0,-1.5942647E1,-2.0252686E1,-2.8456202E0,-1.5324484E1,-1.9478825E0,9.327204E1,3.7243745E0,-1.1078272E1,1.2682162E1,-1.5263802E1,7.280843E0,-2.450105E1,-6.7640853E0,1.33381E-1,-2.6071517E0,-5.8136624E-1,1.3611753E0,-1.142577E0,-1.6655687E0,-1.0245991E0,-2.0965314E0,-1.4554627E0,-1.8638502E0,7.09811E0,2.8882038E1,6.645103E0,-3.3392735E0,-1.7442297E0,1.5837854E-1,3.3467045E0,-3.2201543E-1,-1.9274027E0,-9.6459216E-1,3.735235E0,-8.27497E-1,-2.7269313E0,1.8601141E0,1.0924764E-1,-3.153417E0],"categories":[],"categories_nodes":[],"categories_segments":[],"categories_sizes":[],"default_left":[0,0,0,0,0,0,0,0,0,0,0,0,0,0,0,0,0,0,0,0,0,0,0,0,0,0,0,0,0,0,0,0,0,0,0,0,0,0,0,0,0,0,0,0,0,0,0,0,0,0,0,0,0,0,0,0,0],"id":37,"left_children":[1,3,5,7,9,11,13,15,17,19,21,23,25,27,29,31,33,-1,35,37,-1,39,-1,41,43,45,47,49,51,53,55,-1,-1,-1,-1,-1,-1,-1,-1,-1,-1,-1,-1,-1,-1,-1,-1,-1,-1,-1,-1,-1,-1,-1,-1,-1,-1],"loss_changes":[3.875494E5,1.7213406E4,3.222256E5,2.160111E4,2.495586E3,4.95216E5,5.87309E3,1.5063193E4,5.1075E2,1.4495781E3,2.0673438E2,1.695155E5,2.3525953E4,3.8105361E3,9.888777E3,3.7189434E3,1.3480533E4,0E0,1.8329883E2,6.480469E2,0E0,4.763867E1,0E0,5.89753E5,6.275301E4,5.829502E3,3.2830016E4,8.4431885E1,9.664822E3,9.217457E3,1.1321697E4,0E0,0E0,0E0,0E0,0E0,0E0,0E0,0E0,0E0,0E0,0E0,0E0,0E0,0E0,0E0,0E0,0E0,0E0,0E0,0E0,0E0,0E0,0E0,0E0,0E0,0E0],"parents":[2147483647,0,0,1,1,2,2,3,3,4,4,5,5,6,6,7,7,8,8,9,9,10,10,11,11,12,12,13,13,14,14,15,15,16,16,18,18,19,19,21,21,23,23,24,24,25,25,26,26,27,27,28,28,29,29,30,30],"right_children":[2,4,6,8,10,12,14,16,18,20,22,24,26,28,30,32,34,-1,36,38,-1,40,-1,42,44,46,48,50,52,54,56,-1,-1,-1,-1,-1,-1,-1,-1,-1,-1,-1,-1,-1,-1,-1,-1,-1,-1,-1,-1,-1,-1,-1,-1,-1,-1],"split_conditions":[1E0,1E0,1E0,1E0,1E0,1E0,2.003E3,3E0,4E0,2.013E3,2.013E3,1.1E1,6E0,5E0,2.011E3,2.003E3,2.009E3,-2.0991E0,2.003E3,2.001E3,-2.8456202E0,1.1E1,-1.9478825E0,1E1,2.006E3,2.011E3,2.007E3,3E0,8E0,1.2E1,1E1,1.33381E-1,-2.6071517E0,-5.8136624E-1,1.3611753E0,-1.142577E0,-1.6655687E0,-1.0245991E0,-2.0965314E0,-1.4554627E0,-1.8638502E0,7.09811E0,2.8882038E1,6.645103E0,-3.3392735E0,-1.7442297E0,1.5837854E-1,3.3467045E0,-3.2201543E-1,-1.9274027E0,-9.6459216E-1,3.735235E0,-8.27497E-1,-2.7269313E0,1.8601141E0,1.0924764E-1,-3.153417E0],"split_indices":[4,2,7,5,5,5,0,1,1,0,0,1,1,1,0,0,0,0,0,0,0,1,0,1,0,0,0,1,1,1,1,0,0,0,0,0,0,0,0,0,0,0,0,0,0,0,0,0,0,0,0,0,0,0,0,0,0],"split_type":[0,0,0,0,0,0,0,0,0,0,0,0,0,0,0,0,0,0,0,0,0,0,0,0,0,0,0,0,0,0,0,0,0,0,0,0,0,0,0,0,0,0,0,0,0,0,0,0,0,0,0,0,0,0,0,0,0],"sum_hessian":[1.138E3,6.46E2,4.92E2,3.31E2,3.15E2,3.33E2,1.59E2,1.73E2,1.58E2,1.57E2,1.58E2,1.64E2,1.69E2,3E1,1.29E2,3.1E1,1.42E2,4.3E1,1.15E2,1.2E2,3.7E1,1.24E2,3.4E1,1.39E2,2.5E1,7.1E1,9.8E1,1.1E1,1.9E1,7.2E1,5.7E1,6E0,2.5E1,7.7E1,6.5E1,1.8E1,9.7E1,9E0,1.11E2,1.05E2,1.9E1,1.26E2,1.3E1,9E0,1.6E1,4.7E1,2.4E1,4.2E1,5.6E1,5E0,6E0,6E0,1.3E1,6.8E1,4E0,4.4E1,1.3E1],"tree_param":{"num_deleted":"0","num_feature":"8","num_nodes":"57","size_leaf_vector":"1"}},{"base_weights":[-1.2001575E0,-1.1728695E1,1.2732043E1,1.841147E0,-1.3660184E1,2.9789652E1,-2.0329552E1,6.900578E0,-1.204099E1,-1.7602013E1,-5.1750617E0,6.4374115E1,-3.2985322E0,-1.6631836E1,-2.5163105E1,1.4901268E1,-1.1148347E1,-2.3384503E-1,-1.2894322E0,-9.621541E0,-2.2903625E1,-2.6664078E1,-1.6960831E-1,4.2418095E1,1.3201486E2,-1.45081E1,8.792984E0,-1.1873912E1,-1.8206939E0,-2.3421473E1,-3.5733082E0,1.599932E-1,2.692067E0,-9.262108E-1,-1.8120921E0,-1.8016586E0,-3.025125E-1,-2.6093318E0,-1.3839725E0,-3.6911542E0,-2.015827E0,5.5980116E-1,-1.5737942E0,1.7548894E0,8.990878E0,1.4273223E1,5.234314E-1,-2.1178958E0,1.7007658E-1,6.523353E0,-4.1676387E-1,-9.524954E-1,-1.8507769E0,-2.0536172E0,-2.7546508E0],"categories":[],"categories_nodes":[],"categories_segments":[],"categories_sizes":[],"default_left":[0,0,0,0,0,0,0,0,0,0,0,0,0,0,0,0,0,0,0,0,0,0,0,0,0,0,0,0,0,0,0,0,0,0,0,0,0,0,0,0,0,0,0,0,0,0,0,0,0,0,0,0,0,0,0],"id":38,"left_children":[1,3,5,7,9,11,13,15,17,19,21,23,25,27,29,31,33,-1,-1,35,37,39,41,43,45,47,49,51,-1,53,-1,-1,-1,-1,-1,-1,-1,-1,-1,-1,-1,-1,-1,-1,-1,-1,-1,-1,-1,-1,-1,-1,-1,-1,-1],"loss_changes":[1.6561078E5,1.6878188E4,2.7468616E5,5.7721826E3,1.87395E4,3.675446E5,2.5484219E3,8.830355E3,1.519961E2,1.60264375E4,1.9356686E4,2.2756431E5,2.249178E4,5.1075195E2,4.5170703E2,6.6716396E3,8.204907E1,0E0,0E0,8.528964E3,6.288422E3,1.5226426E3,1.3287559E4,1.4014889E5,5.0885375E4,9.334947E3,5.8792234E4,2.444458E2,0E0,1.841289E2,0E0,0E0,0E0,0E0,0E0,0E0,0E0,0E0,0E0,0E0,0E0,0E0,0E0,0E0,0E0,0E0,0E0,0E0,0E0,0E0,0E0,0E0,0E0,0E0,0E0],"parents":[2147483647,0,0,1,1,2,2,3,3,4,4,5,5,6,6,7,7,8,8,9,9,10,10,11,11,12,12,13,13,14,14,15,15,16,16,19,19,20,20,21,21,22,22,23,23,24,24,25,25,26,26,27,27,29,29],"right_children":[2,4,6,8,10,12,14,16,18,20,22,24,26,28,30,32,34,-1,-1,36,38,40,42,44,46,48,50,52,-1,54,-1,-1,-1,-1,-1,-1,-1,-1,-1,-1,-1,-1,-1,-1,-1,-1,-1,-1,-1,-1,-1,-1,-1,-1,-1],"split_conditions":[1E0,2.002E3,1E0,1E0,2.012E3,1E0,2.01E3,1E0,2E0,2.006E3,3E0,2.013E3,7E0,2.003E3,2.016E3,2.001E3,1.1E1,-2.3384503E-1,-1.2894322E0,6E0,1E0,2.014E3,1E0,9E0,1.2E1,2.012E3,8E0,1.1E1,-1.8206939E0,9E0,-3.5733082E0,1.599932E-1,2.692067E0,-9.262108E-1,-1.8120921E0,-1.8016586E0,-3.025125E-1,-2.6093318E0,-1.3839725E0,-3.6911542E0,-2.015827E0,5.5980116E-1,-1.5737942E0,1.7548894E0,8.990878E0,1.4273223E1,5.234314E-1,-2.1178958E0,1.7007658E-1,6.523353E0,-4.1676387E-1,-9.524954E-1,-1.8507769E0,-2.0536172E0,-2.7546508E0],"split_indices":[6,0,2,2,0,3,0,3,1,0,1,0,1,0,0,0,1,0,0,1,2,0,2,1,1,0,1,1,0,1,0,0,0,0,0,0,0,0,0,0,0,0,0,0,0,0,0,0,0,0,0,0,0,0,0],"split_type":[0,0,0,0,0,0,0,0,0,0,0,0,0,0,0,0,0,0,0,0,0,0,0,0,0,0,0,0,0,0,0,0,0,0,0,0,0,0,0,0,0,0,0,0,0,0,0,0,0,0,0,0,0,0,0],"sum_hessian":[1.127E3,6.42E2,4.85E2,8E1,5.62E2,3.2E2,1.65E2,5.9E1,2.1E1,3.83E2,1.79E2,1.56E2,1.64E2,9.6E1,6.9E1,4.1E1,1.8E1,2E0,1.9E1,1.54E2,2.29E2,3.3E1,1.46E2,1.19E2,3.7E1,8.5E1,7.9E1,2.6E1,7E1,6.2E1,7E0,2E1,2.1E1,1.6E1,2E0,6.7E1,8.7E1,1.68E2,6.1E1,1.1E1,2.2E1,1.07E2,3.9E1,7.9E1,4E1,3.4E1,3E0,6E1,2.5E1,1.4E1,6.5E1,2.1E1,5E0,4E1,2.2E1],"tree_param":{"num_deleted":"0","num_feature":"8","num_nodes":"55","size_leaf_vector":"1"}},{"base_weights":[-2.0101175E0,-1.40064535E1,1.409392E1,-2.1912783E1,-1.1369224E1,-6.4123116E0,5.4748547E1,-1.4237446E1,-2.6985676E1,-8.959258E0,-2.0163954E1,-2.4607643E1,-2.238127E0,1.60884E2,3.8619232E1,-1.7735687E1,-7.267666E-1,-4.191656E1,-2.0368454E1,-1.3830651E1,-3.7928822E0,-2.6157686E1,-1.325066E1,-1.4693431E1,-3.6710094E1,7.937357E-1,-3.3695328E1,2.3920654E1,2.3279344E2,7.075664E1,-1.9229198E1,-1.1192067E0,-2.4930718E0,-1.5650333E0,2.1779711E0,-1.9372492E0,-6.47046E0,-2.2675285E0,-1.5770512E0,-1.1732266E0,-1.9543781E0,-8.7137234E-1,8.728321E-1,-1.5784923E0,-3.8550088E0,-1.5530045E0,8.75206E-3,-2.154549E0,1.9731737E0,-4.135052E0,-9.878284E-1,-7.1876246E-1,1.8297364E0,-7.35141E-1,-5.136793E0,8.899304E0,-1.1419767E1,2.459389E1,3.752405E0,3.3562696E0,2.6229914E1,-2.0627777E1,6.148388E0],"categories":[],"categories_nodes":[],"categories_segments":[],"categories_sizes":[],"default_left":[0,0,0,0,0,0,0,0,0,0,0,0,0,0,0,0,0,0,0,0,0,0,0,0,0,0,0,0,0,0,0,0,0,0,0,0,0,0,0,0,0,0,0,0,0,0,0,0,0,0,0,0,0,0,0,0,0,0,0,0,0,0,0],"id":39,"left_children":[1,3,5,7,9,11,13,15,17,19,21,23,25,27,29,31,33,35,37,39,41,43,45,47,49,51,53,55,57,59,61,-1,-1,-1,-1,-1,-1,-1,-1,-1,-1,-1,-1,-1,-1,-1,-1,-1,-1,-1,-1,-1,-1,-1,-1,-1,-1,-1,-1,-1,-1,-1,-1],"loss_changes":[2.0768286E5,1.2594977E4,3.830071E5,5.5730234E3,9.653828E3,2.3185832E4,2.574181E5,2.9647178E3,8.137117E3,9.158826E3,3.7555977E3,6.2998203E3,2.3870223E4,1.9141062E5,2.5233884E5,2.0750508E3,5.0431367E3,1.2617359E4,3.3183398E2,2.0245195E3,1.1105114E4,6.07575E3,1.4606953E3,8.209275E3,2.7043047E3,3.2123445E4,9.864818E3,8.206431E4,2.4141125E4,6.110036E5,7.524488E5,0E0,0E0,0E0,0E0,0E0,0E0,0E0,0E0,0E0,0E0,0E0,0E0,0E0,0E0,0E0,0E0,0E0,0E0,0E0,0E0,0E0,0E0,0E0,0E0,0E0,0E0,0E0,0E0,0E0,0E0,0E0,0E0],"parents":[2147483647,0,0,1,1,2,2,3,3,4,4,5,5,6,6,7,7,8,8,9,9,10,10,11,11,12,12,13,13,14,14,15,15,16,16,17,17,18,18,19,19,20,20,21,21,22,22,23,23,24,24,25,25,26,26,27,27,28,28,29,29,30,30],"right_children":[2,4,6,8,10,12,14,16,18,20,22,24,26,28,30,32,34,36,38,40,42,44,46,48,50,52,54,56,58,60,62,-1,-1,-1,-1,-1,-1,-1,-1,-1,-1,-1,-1,-1,-1,-1,-1,-1,-1,-1,-1,-1,-1,-1,-1,-1,-1,-1,-1,-1,-1,-1,-1],"split_conditions":[1E0,4E0,1E0,2.007E3,1.1E1,3E0,2.002E3,2.005E3,2.01E3,1E0,2.009E3,2.01E3,1.2E1,5E0,8E0,2.003E3,1E0,1E0,3E0,2.013E3,9E0,2.005E3,2.015E3,2.008E3,2.016E3,2.012E3,2.008E3,4E0,1.2E1,7E0,9E0,-1.1192067E0,-2.4930718E0,-1.5650333E0,2.1779711E0,-1.9372492E0,-6.47046E0,-2.2675285E0,-1.5770512E0,-1.1732266E0,-1.9543781E0,-8.7137234E-1,8.728321E-1,-1.5784923E0,-3.8550088E0,-1.5530045E0,8.75206E-3,-2.154549E0,1.9731737E0,-4.135052E0,-9.878284E-1,-7.1876246E-1,1.8297364E0,-7.35141E-1,-5.136793E0,8.899304E0,-1.1419767E1,2.459389E1,3.752405E0,3.3562696E0,2.6229914E1,-2.0627777E1,6.148388E0],"split_indices":[4,1,6,0,1,1,0,0,0,3,0,0,1,1,1,0,3,3,1,0,1,0,0,0,0,0,0,1,1,1,1,0,0,0,0,0,0,0,0,0,0,0,0,0,0,0,0,0,0,0,0,0,0,0,0,0,0,0,0,0,0,0,0],"split_type":[0,0,0,0,0,0,0,0,0,0,0,0,0,0,0,0,0,0,0,0,0,0,0,0,0,0,0,0,0,0,0,0,0,0,0,0,0,0,0,0,0,0,0,0,0,0,0,0,0,0,0,0,0,0,0,0,0,0,0,0,0,0,0],"sum_hessian":[1.073E3,6.15E2,4.58E2,1.52E2,4.63E2,3.05E2,1.53E2,6.2E1,9E1,3.65E2,9.8E1,5.6E1,2.49E2,1.9E1,1.34E2,4.9E1,1.3E1,2.6E1,6.4E1,1.87E2,1.78E2,5.1E1,4.7E1,3.2E1,2.4E1,2.28E2,2.1E1,7E0,1.2E1,8.6E1,4.8E1,2.7E1,2.2E1,8E0,5E0,1.4E1,1.2E1,4E1,2.4E1,1.39E2,4.8E1,1.28E2,5E1,2.9E1,2.2E1,4E1,7E0,2.7E1,5E0,2E1,4E0,1.57E2,7.1E1,9E0,1.2E1,5E0,2E0,1.1E1,1E0,7.3E1,1.3E1,1.4E1,3.4E1],"tree_param":{"num_deleted":"0","num_feature":"8","num_nodes":"63","size_leaf_vector":"1"}},{"base_weights":[3.7259104E0,-9.986813E0,2.1575966E1,-5.7073627E0,-1.4234558E1,-5.836849E0,7.747275E1,1.1904682E0,-1.24825325E1,-1.2790327E1,-1.9106651E1,3.8974152E0,-1.3224386E1,5.9218357E1,1.4045352E2,1.5134644E1,-2.0869985E0,-9.0242046E-1,-1.3121553E1,-9.9437296E-1,-1.3539142E1,-2.3401477E0,-1.387091E0,-3.4842849E0,1.0627931E1,-2.837015E1,-2.1633317E0,1.24306015E2,4.4109283E1,2.0522938E1,1.1692993E1,1.8203915E0,7.175708E-1,-6.0967913E0,2.3464616E-1,-1.3397921E0,-7.1630996E-1,-1.5499166E0,-1.1417669E0,-1.1614287E0,7.849658E-1,1.521868E0,6.7678684E-1,-1.8195947E0,-3.1119144E0,-6.290393E-1,1.9280252E-1,7.6861978E0,1.6139122E1,-2.1118782E0,5.8170743E0],"categories":[],"categories_nodes":[],"categories_segments":[],"categories_sizes":[],"default_left":[0,0,0,0,0,0,0,0,0,0,0,0,0,0,0,0,0,0,0,0,0,0,0,0,0,0,0,0,0,0,0,0,0,0,0,0,0,0,0,0,0,0,0,0,0,0,0,0,0,0,0],"id":40,"left_children":[1,3,5,7,9,11,13,15,17,19,21,23,25,27,29,31,33,-1,35,-1,37,-1,-1,39,41,43,45,47,49,-1,-1,-1,-1,-1,-1,-1,-1,-1,-1,-1,-1,-1,-1,-1,-1,-1,-1,-1,-1,-1,-1],"loss_changes":[2.7215812E5,1.1352723E4,7.4054744E5,1.47360625E4,1.9721016E3,2.342302E4,1.7448106E5,7.206733E3,2.3296875E2,3.897422E2,1.249459E3,7.0422837E3,3.0931328E4,1.1744372E5,2.9334062E4,6.0221826E2,3.355697E4,0E0,1.21396484E2,0E0,6.2139844E2,0E0,0E0,6.3570264E3,1.2083242E3,1.6153242E3,1.8357383E3,2.8063E4,9.5700266E4,0E0,0E0,0E0,0E0,0E0,0E0,0E0,0E0,0E0,0E0,0E0,0E0,0E0,0E0,0E0,0E0,0E0,0E0,0E0,0E0,0E0,0E0],"parents":[2147483647,0,0,1,1,2,2,3,3,4,4,5,5,6,6,7,7,8,8,9,9,10,10,11,11,12,12,13,13,14,14,15,15,16,16,18,18,20,20,23,23,24,24,25,25,26,26,27,27,28,28],"right_children":[2,4,6,8,10,12,14,16,18,20,22,24,26,28,30,32,34,-1,36,-1,38,-1,-1,40,42,44,46,48,50,-1,-1,-1,-1,-1,-1,-1,-1,-1,-1,-1,-1,-1,-1,-1,-1,-1,-1,-1,-1,-1,-1],"split_conditions":[1E0,1E0,1E0,1E0,2.013E3,2.007E3,2.013E3,2.003E3,2.003E3,2.003E3,1E0,1E0,2.011E3,2.002E3,2.014E3,2.002E3,2.004E3,-9.0242046E-1,2.016E3,-9.9437296E-1,1E0,-2.3401477E0,-1.387091E0,2.004E3,2.003E3,2.008E3,1E0,2.001E3,2.004E3,2.0522938E1,1.1692993E1,1.8203915E0,7.175708E-1,-6.0967913E0,2.3464616E-1,-1.3397921E0,-7.1630996E-1,-1.5499166E0,-1.1417669E0,-1.1614287E0,7.849658E-1,1.521868E0,6.7678684E-1,-1.8195947E0,-3.1119144E0,-6.290393E-1,1.9280252E-1,7.6861978E0,1.6139122E1,-2.1118782E0,5.8170743E0],"split_indices":[4,2,6,5,0,0,0,0,0,0,5,5,0,0,0,0,0,0,0,0,5,0,0,0,0,0,5,0,0,0,0,0,0,0,0,0,0,0,0,0,0,0,0,0,0,0,0,0,0,0,0],"split_type":[0,0,0,0,0,0,0,0,0,0,0,0,0,0,0,0,0,0,0,0,0,0,0,0,0,0,0,0,0,0,0,0,0,0,0,0,0,0,0,0,0,0,0,0,0,0,0,0,0,0,0],"sum_hessian":[1.11E3,6.28E2,4.82E2,3.14E2,3.14E2,3.24E2,1.58E2,1.56E2,1.58E2,2.45E2,6.9E1,1.4E2,1.84E2,1.24E2,3.4E1,2.9E1,1.27E2,2.7E1,1.31E2,5.4E1,1.91E2,3.6E1,3.3E1,6.7E1,7.3E1,7.7E1,1.07E2,2.2E1,1.02E2,7E0,2.7E1,2E1,9E0,8E0,1.19E2,1.24E2,7E0,9.6E1,9.5E1,3.9E1,2.8E1,3.2E1,4.1E1,1.8E1,5.9E1,5.3E1,5.4E1,1.1E1,1.1E1,1.8E1,8.4E1],"tree_param":{"num_deleted":"0","num_feature":"8","num_nodes":"51","size_leaf_vector":"1"}},{"base_weights":[-4.145622E-1,-8.9009905E0,1.0848824E1,-5.313181E0,-1.2483409E1,-4.057633E0,4.096659E1,9.226925E-1,-1.103489E1,-1.4721105E1,-1.012498E1,7.131841E0,-1.0248644E1,1.1494249E2,3.0183014E1,1.1045874E1,-5.244219E0,-7.3051224E0,-1.1792773E0,-1.2984431E1,-2.0438784E1,-9.4960946E-1,-1.2081716E0,-1.4730219E0,1.4914473E1,-2.3233315E1,9.8818403E-1,6.919037E0,1.3425592E1,1.8698532E1,7.798051E1,-3.107721E-1,3.6805127E0,-3.9141777E0,1.433893E-1,-8.74598E-1,-5.934792E-1,-7.923189E-1,-1.3396074E0,-1.7970238E0,-2.6832414E0,-2.6502156E-1,5.9214175E-1,2.5899007E0,4.8094437E-1,-8.7803954E-1,-3.1618965E0,-6.702863E-1,8.661894E-1,-2.1305094E0,2.5855339E0,9.925853E0,5.9625287E0],"categories":[],"categories_nodes":[],"categories_segments":[],"categories_sizes":[],"default_left":[0,0,0,0,0,0,0,0,0,0,0,0,0,0,0,0,0,0,0,0,0,0,0,0,0,0,0,0,0,0,0,0,0,0,0,0,0,0,0,0,0,0,0,0,0,0,0,0,0,0,0,0,0],"id":41,"left_children":[1,3,5,7,9,11,13,15,17,19,21,23,25,27,29,31,33,35,-1,37,39,-1,-1,41,43,45,47,-1,-1,49,51,-1,-1,-1,-1,-1,-1,-1,-1,-1,-1,-1,-1,-1,-1,-1,-1,-1,-1,-1,-1,-1,-1],"loss_changes":[1.0743955E5,8.1724688E3,2.170087E5,1.1499095E4,1.5397266E3,2.251792E4,1.2416669E5,9.734385E3,3.887422E2,1.3432344E3,8.092969E1,7.790313E3,3.0517414E4,8.383406E3,7.5940914E4,2.1624957E4,2.2014178E4,9.30249E0,0E0,1.5845508E2,8.600195E1,0E0,0E0,5.0315552E2,6.64638E3,1.1478492E4,6.7271914E3,0E0,0E0,3.3475133E4,4.626875E3,0E0,0E0,0E0,0E0,0E0,0E0,0E0,0E0,0E0,0E0,0E0,0E0,0E0,0E0,0E0,0E0,0E0,0E0,0E0,0E0,0E0,0E0],"parents":[2147483647,0,0,1,1,2,2,3,3,4,4,5,5,6,6,7,7,8,8,9,9,10,10,11,11,12,12,13,13,14,14,15,15,16,16,17,17,19,19,20,20,23,23,24,24,25,25,26,26,29,29,30,30],"right_children":[2,4,6,8,10,12,14,16,18,20,22,24,26,28,30,32,34,36,-1,38,40,-1,-1,42,44,46,48,-1,-1,50,52,-1,-1,-1,-1,-1,-1,-1,-1,-1,-1,-1,-1,-1,-1,-1,-1,-1,-1,-1,-1,-1,-1],"split_conditions":[1E0,1E0,1E0,1E0,1E0,2.006E3,2.002E3,2.006E3,2.003E3,2.013E3,2.013E3,1E0,2.011E3,2.001E3,2.014E3,2.004E3,2.008E3,2.001E3,-1.1792773E0,2.001E3,2.016E3,-9.4960946E-1,-1.2081716E0,2.005E3,2.003E3,2.008E3,1E0,6.919037E0,1.3425592E1,2.004E3,2.015E3,-3.107721E-1,3.6805127E0,-3.9141777E0,1.433893E-1,-8.74598E-1,-5.934792E-1,-7.923189E-1,-1.3396074E0,-1.7970238E0,-2.6832414E0,-2.6502156E-1,5.9214175E-1,2.5899007E0,4.8094437E-1,-8.7803954E-1,-3.1618965E0,-6.702863E-1,8.661894E-1,-2.1305094E0,2.5855339E0,9.925853E0,5.9625287E0],"split_indices":[4,2,6,5,5,0,0,0,0,0,0,5,0,0,0,0,0,0,0,0,0,0,0,0,0,0,5,0,0,0,0,0,0,0,0,0,0,0,0,0,0,0,0,0,0,0,0,0,0,0,0,0,0],"split_type":[0,0,0,0,0,0,0,0,0,0,0,0,0,0,0,0,0,0,0,0,0,0,0,0,0,0,0,0,0,0,0,0,0,0,0,0,0,0,0,0,0,0,0,0,0,0,0,0,0,0,0,0,0],"sum_hessian":[1.122E3,6.4E2,4.82E2,3.21E2,3.19E2,3.23E2,1.59E2,1.54E2,1.67E2,1.61E2,1.58E2,1.15E2,2.08E2,1.9E1,1.4E2,5.8E1,9.6E1,3E1,1.37E2,1.26E2,3.5E1,1.24E2,3.4E1,5.5E1,6E1,9.6E1,1.12E2,7E0,1.2E1,1.14E2,2.6E1,3.8E1,2E1,1.5E1,8.1E1,1.2E1,1.8E1,1.1E1,1.15E2,2.8E1,7E0,4.8E1,7E0,2.8E1,3.2E1,3.6E1,6E1,5.6E1,5.6E1,1.7E1,9.7E1,1E1,1.6E1],"tree_param":{"num_deleted":"0","num_feature":"8","num_nodes":"53","size_leaf_vector":"1"}},{"base_weights":[-4.6449932E-1,-9.08754E0,1.0608413E1,-1.187624E1,-6.099887E0,-3.6659796E0,3.7850662E1,-1.0492363E1,-1.5013283E1,9.885151E0,-9.409122E0,-1.3026431E0,-2.6342485E0,1.0539241E1,9.575788E1,-1.205287E1,-5.685902E0,-2.236133E1,-5.6987085E0,2.759891E1,-1.1766765E1,-1.9565205E1,-6.9462028E0,-1.2837482E1,5.774101E0,3.86902E1,-2.0134575E1,1.8483273E2,-1.0703792E1,-1.0224947E0,-1.3825663E0,-3.9842706E-2,-1.0783848E0,-3.5243263E0,-9.5967245E-1,-3.1040037E-1,-7.839742E-1,5.743431E0,-6.065448E-1,-2.1104715E0,-2.9223263E-1,-3.5745885E0,-3.2543507E-1,-1.3480836E-1,-1.2748636E0,-1.7730726E0,-8.2953084E-1,1.8304493E0,-3.8554823E-1,1.9017026E-1,2.5929441E1,8.842731E0,2.533529E1,1.2743758E0,-3.513163E0],